1988 128
the 0.15337874 0.045756064 -0.05858578 0.0726487 -0.12081013 0.019973407 -0.04985414 -0.06722883 0.06516889 0.14261477 -0.028820165 -0.08824091 0.06291906 0.031711284 -0.094615035 0.26370567 0.1764845 -0.013512146 0.18761395 0.18013453 -0.06860491 -0.057560403 0.15744323 -0.083133586 0.03193282 -0.08364051 0.203705 0.12542863 -0.2532008 -0.0306823 0.049797438 0.07920201 0.08856528 0.015538115 -0.003739873 0.0028908732 -0.231475 -0.19088542 -0.044596963 0.17852938 0.03584989 -0.026298026 -0.17376204 -0.0060730614 0.12598541 0.1571369 0.070873894 0.1317737 0.1751867 -0.024229351 0.06861984 0.0093285 -0.19361702 -0.033385817 0.15056325 0.1674793 0.22040202 -0.13538432 -0.15828454 0.09209671 0.042184237 -0.071242824 0.022128863 0.18185405 -0.18730243 0.10094271 0.012610867 0.09259453 0.108508594 -0.03121146 -0.031150617 0.027834242 0.26630077 -0.092716195 -0.029864108 -0.15390785 -0.23807013 0.1947502 0.045203388 0.057785206 0.13176407 -0.014622943 0.13214375 -0.11240994 0.1495194 -0.012850102 0.27646005 0.01909211 0.072716855 -0.052705806 -0.072184384 0.046656664 0.023671335 -0.03740767 -0.08775961 0.04279521 0.025292842 0.08060353 0.038696345 -0.054795668 0.036933683 -0.103031956 0.00010913993 -0.37325206 0.12840287 -0.07840348 -0.077866204 0.036457647 0.18147358 0.15011548 0.072153606 0.14603512 -0.106228136 -0.114742585 -0.24370678 -0.074650005 0.058602136 0.26108268 0.14518447 0.11327547 -0.22000758 0.026073642 -0.027907265 -0.059614666 -0.046956826 -0.17982459 -0.15392093 0.064516716
, 0.19323961 -0.02533696 -0.24085169 0.2486767 -0.018155178 0.09193707 -0.022405602 -0.13981871 -0.03043106 0.12739936 0.004531066 -0.027018879 0.047749646 0.13377528 -0.15562858 0.32503164 0.16193572 0.0002716234 0.17946865 0.21855086 -0.08252545 -0.025192717 0.26901168 -0.008991581 -0.05183742 -0.17753398 0.14523073 0.0862932 -0.29858628 -0.04625033 0.044333603 0.12727064 0.14601894 -0.03751119 0.0138633065 0.054643597 -0.18329962 -0.15062962 0.06828649 0.10540212 0.08267463 -0.024477743 -0.07956848 -0.038886633 0.09353974 0.19884694 0.040409435 0.03650682 0.051505845 -0.055034626 -0.0754092 0.06583598 -0.13576657 -0.06644139 0.04284113 0.115992546 0.109036 -0.19543093 -0.184747 0.086644925 0.031916562 -0.049463853 0.054976083 0.16451554 -0.16571012 0.1531312 0.017236657 0.1007453 0.09509862 -0.0065129646 -0.005847269 -0.032236908 0.18005419 -0.18397686 -0.051159244 -0.052869365 -0.16538855 0.11679157 0.057214696 0.19353403 0.06894415 -0.06891163 0.13611387 -0.08975325 0.07839685 -0.049499933 0.23859054 -0.10319866 -0.03607303 -0.07041737 -0.07244924 0.057360034 -0.006503909 0.058720905 -0.11203227 0.06284182 -0.077540055 0.08537582 -0.026742645 -0.02917104 -0.02043995 -0.02304767 0.08430979 -0.31150633 0.16861849 -0.046179622 -0.08288635 -0.040686503 0.1453355 0.070033446 0.08987176 0.12872526 -0.073330946 -0.20080881 -0.118409246 -0.14284256 0.061072044 0.15211545 0.12354532 0.1279661 -0.12089564 -0.06505004 -0.061161283 -0.023894718 -0.084615655 -0.11915738 -0.1765167 -0.010610096
. 0.06951392 0.039987233 -0.14952837 0.12245723 -0.17132415 0.004869951 0.016580291 -0.26168063 0.02036078 0.0087147 -0.019037971 -0.06134629 -0.11938932 0.2491431 -0.21007127 0.41564474 0.5374364 -0.16628565 0.23379365 0.1931077 -0.13958472 0.12841891 0.19526519 0.04561966 -0.16983262 -0.09481355 0.09209382 -0.009682921 -0.17205371 -0.10375725 -0.08510979 0.07578947 0.08457695 0.038664952 0.043478493 -0.09651936 0.033513993 -0.20233318 -0.09407353 0.08916785 0.13938236 0.14953183 -0.025357695 -0.08515996 0.34830222 0.027181286 0.019178068 -0.12607877 0.02066983 0.012504611 -0.049513128 0.11375553 -0.010078664 -0.15366794 -0.015407759 -0.0047699306 0.26568064 0.0054336544 -0.07859317 0.07201844 0.20939554 -0.038067125 0.23496026 0.09408088 -0.19237834 0.20106785 -0.009277255 0.09380926 -0.03725612 -0.10703613 0.108536385 -0.026757607 0.10968114 0.05236908 0.060598064 -0.18529443 -0.18334214 0.24344593 0.21203531 -0.030350916 0.06621706 -0.03474286 0.09389194 -0.16428433 0.041045953 0.07554971 0.0047073993 -0.24629694 -0.14796332 -0.08682213 -0.1599876 -0.0007705346 -0.081557736 0.2934718 -0.14836112 0.26532826 -0.13216406 0.066667266 -0.18745436 -0.14707898 0.059136327 -0.030989405 -0.011600838 -0.49503896 -0.06299997 -0.28287816 0.03162168 0.031104865 0.07386871 0.024151867 0.14107639 0.24298391 -0.020879338 -0.43465146 -0.2641663 -0.031185888 0.2173561 0.38180217 0.21875398 0.12988915 -0.10559286 0.03620439 -0.045290977 -0.048238363 -0.18266918 -0.22676133 -0.20729943 0.17182104
<s> 0.1949713 -0.063945614 -0.28342077 0.28279194 0.11203779 0.07590866 -0.032077055 -0.07755661 -0.114630155 0.13394903 0.0508544 0.008885153 0.077775985 0.14355539 -0.17172235 0.26787233 0.02494104 0.040438566 0.108125955 0.22886884 -0.04654866 -0.0835773 0.2954844 -0.026977394 -0.04926288 -0.17412575 0.09616287 0.038276333 -0.36019874 0.03908475 0.046641886 0.16590746 0.12416842 -0.08998304 -0.0051143365 0.0811868 -0.22464156 -0.15332854 0.13921392 0.1081922 0.12395916 -0.07314091 -0.07553829 -0.020376964 -0.025584633 0.25531352 0.040857058 0.082834974 0.028861526 -0.16212592 -0.1344176 0.041587424 -0.14804658 -0.052782584 0.028058164 0.1407241 0.007510843 -0.3016116 -0.21505447 0.084658265 0.016980916 0.009676642 -0.00942158 0.22202688 -0.14499621 0.17696209 -0.024902845 0.1064605 0.1635776 -0.01625447 -0.008133266 -0.012034388 0.16024876 -0.3065937 -0.1205073 0.03505797 -0.13828868 0.048997816 0.054537036 0.28413928 0.0967356 -0.1101701 0.11792079 -0.07020007 0.043762285 -0.1281695 0.2854382 -0.09474422 -0.06251763 -0.13626188 0.020466313 0.062124375 -0.0030383 -0.032329246 -0.103709035 0.0149539 -0.07954918 0.08685537 0.012518246 -0.011735666 -0.078061715 0.015705455 0.088774376 -0.24307664 0.20991558 0.06320104 -0.15105262 -0.039556514 0.19600828 0.07774132 0.08655093 0.117565006 -0.036973413 -0.1817815 -0.08615341 -0.2530548 0.084327325 0.043072894 0.102070406 0.15098774 -0.028238485 -0.12861823 -0.0063883336 -0.010568123 -0.083396964 -0.101509124 -0.2542393 -0.15615447
<\s> -0.29771942 -0.028578602 0.195644 -0.044050634 -0.19353878 0.1129789 -0.18055525 -0.41336656 0.060166944 0.2469917 0.057468887 -0.08401719 -0.21137217 0.053062137 -0.14360814 0.25620675 0.3431342 0.0053782943 0.20025267 0.09848423 -0.16021198 0.11757408 0.24909353 -0.19703908 -0.107900985 0.013594176 0.14990209 0.094877236 -0.051548272 -0.0062437034 0.011222881 0.026285525 0.21206635 0.05738255 0.045318525 0.0037349008 0.019814286 -0.39424637 -0.08585818 0.103446536 0.12258846 0.016641928 -0.12276221 -0.014823065 0.27124324 0.12964796 -0.017988885 0.012112121 -0.031651486 -0.106034264 -0.037054684 0.08698465 -0.15180147 -0.08569681 0.025249086 0.08154369 0.30949354 -0.102566965 -0.1804438 0.11270192 0.13801572 -0.1120338 0.16775964 0.17269708 -0.22130173 0.21167797 -0.15623172 -0.055948716 0.07675007 0.01855199 0.042268462 -0.06341002 0.20659496 -0.18088028 0.0124477 -0.20270485 -0.21389505 0.1432716 0.08724442 0.011003391 0.015829114 -0.128292 0.18203443 -0.16191147 -0.0344533 0.07994335 0.19172211 -0.17254277 0.060621575 -0.058666 -0.22426122 0.024291221 0.14627787 0.25716504 -0.27739522 0.24482839 0.013678394 0.26094154 -0.20271406 -0.00011884761 0.11492611 0.048712216 0.11810208 -0.3456044 0.06278926 -0.2748489 0.013081479 -0.06695405 0.1120521 0.082030214 0.17231707 0.2532243 -0.10476611 -0.29262343 -0.35150588 -0.1475838 0.1690719 0.37798685 0.17432667 -0.07529655 -0.1806873 -0.003012393 -0.054979574 -0.19748622 -0.13109064 -0.20069544 -0.13795073 0.10171662
to 0.03566993 -0.015401367 -0.043337923 0.057412393 -0.11843418 0.112294376 -0.13963467 -0.2399425 -0.023293609 0.16463825 0.041845378 0.005284678 -0.033005763 0.09650221 -0.12281212 0.32669872 0.31237596 -0.09625893 0.22386217 0.14499785 -0.12933299 0.046798475 0.20335363 -0.006232527 -0.16287194 -0.091221906 0.16420197 0.061063588 -0.19749232 -0.078079395 -0.031110886 0.089511335 0.10241993 0.020433392 0.03203886 0.01913347 -0.10804051 -0.1852769 -0.032733485 0.118963026 -0.010965289 0.023130655 -0.09021478 -0.097294696 0.17604795 0.09820572 0.0008740629 0.038560227 0.042337216 -0.08972623 -0.0018734654 0.07136358 -0.09277862 -0.18545792 0.05669434 0.1154893 0.26602316 -0.061139755 -0.18848336 0.076377496 0.11319213 -0.09474543 0.1940247 0.10619459 -0.16599025 0.20502773 0.034562178 0.07811664 0.028040629 -0.1336792 0.08604207 0.0063401517 0.050293386 -0.015513889 0.024009041 -0.18260306 -0.2391361 0.1787409 0.102103576 0.029245581 0.08751562 -0.12139749 0.16097058 -0.24184266 0.14169042 0.038463764 0.12324995 -0.1778366 -0.02945436 -0.08486156 -0.08230451 0.050978765 0.026203075 0.08548351 -0.06253626 0.14760011 -0.066962786 0.18509103 -0.12627062 -0.045619898 -0.036398258 -0.06601272 0.045313388 -0.33499202 -0.0006718213 -0.15932447 -0.0110819265 0.0455049 0.070131086 0.1132509 0.07006239 0.13242938 -0.024364943 -0.32823372 -0.17941682 -0.03112376 0.17150718 0.28424492 0.17960536 0.07311961 -0.17694579 0.012416554 -0.055477787 -0.05863058 -0.18292236 -0.15618035 -0.14989766 0.053374548
a -0.035501566 -0.04995339 -0.026605079 0.06735112 -0.091451034 0.05093239 -0.122592025 -0.26054597 0.034038045 0.1391115 0.041748554 -0.023779042 -0.031671096 0.07933297 -0.15614188 0.3540752 0.3490253 -0.07112056 0.19741529 0.18736409 -0.11247484 0.047635674 0.23223442 -0.097485416 -0.067426935 -0.010893046 0.16586709 0.062421992 -0.15607384 -0.070542574 -0.030153992 0.038455807 0.14847109 0.021699121 0.05239747 0.0066375765 -0.07181875 -0.27348882 -0.04039725 0.08037622 0.033357907 0.04371002 -0.09687358 -0.069877416 0.25206837 0.11704251 0.014682188 0.031918462 0.039751526 -0.07589405 0.018954854 0.09015389 -0.13827385 -0.13871412 0.053329803 0.05851399 0.26040813 -0.096296385 -0.15964644 0.09377913 0.099933304 -0.09632512 0.15360714 0.1707113 -0.19948281 0.18032989 -0.030941334 0.01901005 0.045929592 -0.048029322 0.0068335366 0.02135533 0.12959169 -0.12358697 -0.041338988 -0.16088517 -0.19991268 0.1869887 0.08131074 0.047784768 0.1055065 -0.12618285 0.13852653 -0.21591002 0.060711045 0.08523578 0.14902307 -0.18946959 -0.026216345 -0.100690715 -0.11657799 0.09507194 0.0059531787 0.1766262 -0.13548478 0.16524269 -0.061586585 0.1423045 -0.10471577 -0.022305693 0.0194609 0.01076813 0.0012225367 -0.3376667 0.077214114 -0.1799376 -0.014131632 0.022185957 0.1326823 0.13756323 0.082519524 0.17918628 -0.059162598 -0.29206032 -0.21838078 -0.08294742 0.116820246 0.33861494 0.13662533 0.040644325 -0.19030169 0.052184287 -0.048166573 -0.11668994 -0.1545493 -0.18804134 -0.1247059 0.08370256
of 0.15195891 0.090412125 -0.1546034 0.17048268 -0.07675874 0.0074332976 0.020235231 -0.049415205 0.022129692 0.13635366 -0.0636488 -0.08143692 0.02757268 0.069337204 -0.078475215 0.16167288 0.1298364 -0.011582665 0.20062278 0.115065105 -0.06449545 -0.06648434 0.15377949 -0.056179553 -0.034540463 -0.09008045 0.11174842 0.13549438 -0.2394149 0.033829764 0.0802612 0.14434904 0.03032654 -0.02081512 0.009423995 -0.058093727 -0.14928499 -0.19993672 -0.030734878 0.15277691 0.09601593 -0.081525706 -0.1615865 0.048931576 0.09886144 0.16739185 0.047951423 0.049936585 0.1376082 -0.050082173 -0.007184072 0.044632167 -0.19177195 -0.034502972 0.10106352 0.1746854 0.18396287 -0.19177324 -0.14679915 0.1039999 0.10578056 -0.019488402 0.09527814 0.15321355 -0.11459015 0.14058153 -0.029780405 0.09356466 0.1425935 -0.071960755 0.027094156 0.017813208 0.28610885 -0.13871095 -0.040827166 -0.114920676 -0.23444805 0.13972688 0.051381502 0.07812181 0.09537592 -0.036544308 0.19425002 -0.034410562 0.18473266 -0.065907806 0.282212 0.0001345517 0.06049688 -0.13842227 -0.05240398 -0.023033824 0.05060545 -0.018596241 -0.12857008 0.048914623 0.038987674 0.11099894 -0.013933201 -0.06485632 0.0065212413 -0.074467175 0.066786155 -0.39548543 0.06258523 -0.047096428 -0.11260483 0.025469126 0.18687792 0.12501164 0.1820319 0.16871144 -0.10944205 -0.16373995 -0.27374148 -0.12523596 0.13120884 0.25771368 0.16911727 0.12602437 -0.12231934 -0.029448202 -0.023499694 -0.044877257 -0.0526493 -0.17150873 -0.236882 0.048385862
and 0.15730198 0.057253316 -0.09534722 0.07820187 -0.08204099 0.034314416 -0.08549256 -0.08848898 0.007770253 0.15639684 -0.03432158 -0.03903387 0.0697686 0.062072497 -0.10367749 0.25087076 0.19099 -0.031277504 0.21776968 0.15730599 -0.05423045 -0.042368416 0.15340734 -0.039564125 -0.08245855 -0.064436205 0.1602099 0.08012846 -0.2320123 -0.0052231196 0.029152593 0.13576409 0.021785568 0.002943197 0.022823742 -0.00036144088 -0.16057879 -0.1636403 -0.03918748 0.14852074 -0.015052503 -0.04703764 -0.14568377 -0.0015355096 0.0923779 0.15883452 0.045143053 0.085011296 0.11831189 -0.07381718 0.035732105 0.051928896 -0.1756909 -0.086898774 0.106600784 0.16363788 0.24213457 -0.12673025 -0.16376427 0.06570538 0.08004725 -0.06558057 0.106957994 0.13925602 -0.13440116 0.15064324 0.015984116 0.082102574 0.10867871 -0.09626 0.04108265 0.046779986 0.17493385 -0.078461565 -0.0072923494 -0.1542955 -0.22764267 0.1579171 0.046731707 0.06629924 0.119088635 -0.0750555 0.1853514 -0.13283917 0.2068802 -0.04147362 0.25185448 -0.044449728 0.053947017 -0.12179978 -0.04410841 0.0069123814 0.041079193 -0.049698323 -0.060464263 0.048017964 -0.0005646177 0.12003729 -0.030936135 -0.036757123 -0.03887399 -0.10207302 0.006887946 -0.36204442 0.06282951 -0.06324708 -0.07910748 0.05517104 0.12197448 0.16821384 0.10650179 0.11357493 -0.054545954 -0.1803634 -0.19629113 -0.038688157 0.11827191 0.26159823 0.15932728 0.12262171 -0.16037296 0.013615176 -0.03569975 -0.04739609 -0.10107111 -0.1643617 -0.20108765 0.024764761
in 0.07778951 0.03828254 -0.09109085 0.088841215 -0.09719999 0.008075437 -0.011605306 -0.046090566 0.008822118 0.1589925 -0.07331502 -0.054164812 0.035547815 0.04608206 -0.05208971 0.21860296 0.18456395 -0.04516099 0.20279174 0.1576965 -0.10177265 -0.08232 0.15639247 -0.053407405 -0.019385185 -0.062389724 0.14866945 0.1007703 -0.27052915 0.011933978 0.050393853 0.10726062 0.05968499 -0.031003868 0.018351374 -0.0093115475 -0.15878238 -0.20997015 -0.03642306 0.14349243 0.035416164 -0.056832585 -0.15069751 0.036702454 0.14565365 0.18326962 0.017883763 0.057156786 0.14856316 -0.094614185 0.035425115 0.030947985 -0.20188193 -0.054675825 0.11621179 0.17737086 0.23174621 -0.14371285 -0.14257495 0.0896569 0.09142391 -0.039808683 0.12546772 0.14833441 -0.14565064 0.08399299 -0.01872743 0.09656241 0.106884584 -0.09219241 -0.03739332 0.03456743 0.24480033 -0.12507385 -0.04329954 -0.15662523 -0.24011053 0.14762333 0.049117215 0.040420756 0.12540378 -0.0293611 0.1432949 -0.08818147 0.16024385 -0.019872678 0.22331354 -0.004208624 0.046063844 -0.12784079 -0.030951574 0.05141715 0.050224155 -0.01964073 -0.102259904 0.06693973 0.015087421 0.120778926 -0.005934995 -0.068128444 -0.0033322824 -0.07658013 0.06536918 -0.3716903 0.033233583 -0.09002056 -0.06357128 0.053849377 0.16836202 0.14284821 0.11380431 0.16605514 -0.07752251 -0.14708059 -0.23002756 -0.09700122 0.10984016 0.29570743 0.15634991 0.14237395 -0.18322378 0.009993489 -0.03872145 -0.032496274 -0.07550279 -0.15499975 -0.21976471 0.07553073
'' 0.08518097 -0.0071793324 -0.026997047 0.12464425 -0.0668567 0.08628288 -0.12868705 -0.42718777 0.06178738 0.08202269 0.10353601 -0.07753918 -0.0890644 0.23261139 -0.31259972 0.44521177 0.42482856 0.069601454 0.17986277 0.21416669 -0.047112275 0.26029953 0.26949555 -0.017535543 -0.20894869 -0.16834162 0.15185884 -0.007385105 -0.11104565 -0.10561789 -0.04154486 0.1241351 0.1496019 0.13738151 -0.048685703 0.020195987 -0.061747123 -0.16063859 -0.019592231 0.12536284 0.18460204 0.10625936 -0.10500892 -0.12725414 0.13734388 0.04071986 0.04854785 0.03522237 -0.075584725 0.018364232 -0.14730752 0.11230225 0.010601646 -0.10186857 0.044395097 0.020382492 0.11690408 -0.05071001 -0.23013568 0.06930581 0.15881693 -0.06970248 0.087832846 0.053725593 -0.1782526 0.33090723 -0.03545428 0.024990434 0.048660714 0.04203878 0.20788608 -0.16416837 0.09516759 -0.09181246 0.09407473 -0.12098782 -0.09642867 0.14053407 0.19086187 0.17273699 -0.07717245 -0.19649594 0.2203314 -0.14335147 0.013956811 -0.04227387 0.19945437 -0.30223146 -0.06783533 -0.055724423 -0.25362152 -0.07383468 -0.014212728 0.2718425 -0.15616624 0.22157745 -0.10708163 0.15344632 -0.25199345 -0.08918259 0.07690639 0.0011368378 0.05453484 -0.35307178 0.14942381 -0.15218958 -0.014300473 -0.06728321 0.045129534 -0.024984526 0.12353954 0.17668276 -0.100830704 -0.42017227 -0.20155208 -0.1241879 0.23530886 0.15745896 0.15776864 0.013641864 -0.06315509 -0.04211483 0.008900561 -0.16362666 -0.14751044 -0.28882778 -0.12992138 -0.036556713
`` 0.310339 -0.014994892 -0.1414107 0.2168366 -0.021462256 0.1728746 -0.15152675 -0.34620866 -0.055692587 0.16919306 0.13901758 -0.048310142 0.06390943 0.26296246 -0.31336078 0.5080883 0.27882463 0.16410972 0.18126129 0.37121892 0.020987134 0.11786518 0.3359774 0.041960992 -0.23127826 -0.2736417 0.17194887 0.057581935 -0.24987316 -0.06801211 0.06794969 0.25408253 0.1543138 0.050222 -0.08378795 0.12509908 -0.2534372 -0.050209697 0.09708308 0.12591295 0.14070663 0.028341928 -0.05810197 -0.14353485 -0.13346055 0.15828928 0.06631231 0.085289665 -0.08216418 -0.031265516 -0.16953689 0.1536077 -0.046293717 -0.13857175 0.114120394 0.075361915 0.020818757 -0.15292701 -0.26942262 0.06542766 0.06766788 -0.13149405 -0.044540673 0.07514139 -0.19919214 0.35003075 0.029412596 0.043966647 0.064220786 0.075977735 0.1830237 -0.23203646 0.049461644 -0.13913025 0.0641684 -0.01602517 -0.012745265 0.0068645 0.12060053 0.35241184 -0.051619086 -0.12882425 0.1934163 -0.08148504 0.097152784 -0.12301889 0.3007605 -0.2341709 -0.07320323 -0.06692969 -0.1999319 -0.05373644 0.02689097 0.10235928 -0.06566046 0.11181117 -0.17951542 0.14738347 -0.13790381 -0.03268821 -0.041541684 -0.0423644 0.10733466 -0.25260574 0.272903 0.011015539 -0.07951962 -0.1153814 0.040032133 -0.013260808 0.08765644 0.12722564 -0.06262526 -0.2879358 -0.047932424 -0.13136263 0.15413226 -0.102059126 0.09628139 0.014738823 -0.03325308 -0.11409259 0.031895984 -0.0674459 -0.13201086 -0.2120625 -0.12921934 -0.11753094
's 0.046566773 0.008667593 -0.12220325 0.17218998 -0.045106042 0.022187151 -0.0131675685 -0.12464205 -0.011072816 0.14487001 0.018048385 -0.051126216 -0.022980664 0.11128155 -0.14548212 0.26836318 0.17928848 -0.009661011 0.16055417 0.19005284 -0.09565665 -0.04373866 0.24713197 -0.055239372 -0.044789284 -0.10019978 0.12472128 0.07001654 -0.2661476 0.011514645 0.022595178 0.11272891 0.12704314 -0.038503926 0.016098015 0.019009732 -0.13906911 -0.23357357 0.021070203 0.117642306 0.12072311 -0.0043084268 -0.10106368 0.00352157 0.12714949 0.1907361 0.018622426 0.037852064 0.063706115 -0.10790252 -0.060379658 0.053949296 -0.15520199 -0.06167409 0.050619464 0.124755666 0.13860783 -0.18260406 -0.16145892 0.10191303 0.09111267 -0.034478102 0.08114082 0.1949986 -0.17111602 0.14608599 -0.06465881 0.07040487 0.11053044 -0.018292764 0.00065118034 -0.014509231 0.21586083 -0.19981037 -0.06611406 -0.084611155 -0.1745709 0.11722589 0.09776098 0.12475798 0.09198214 -0.05800097 0.110949375 -0.08608686 0.03618513 -0.057270173 0.20364262 -0.097266614 -0.00831315 -0.121869266 -0.07623537 0.042545144 0.030092588 0.06684089 -0.15131624 0.10470128 -0.044346374 0.12823127 -0.035120033 -0.046986338 0.0065033217 0.012957919 0.09209711 -0.332448 0.09318897 -0.08296255 -0.072066605 -0.008022648 0.16516809 0.08350371 0.12758145 0.18536107 -0.079805605 -0.20298864 -0.21908672 -0.18491219 0.13050723 0.20014803 0.12566273 0.09178435 -0.11354357 -0.056857616 -0.011410405 -0.047895215 -0.08810698 -0.12631817 -0.21334352 0.0034496454
that 0.2803746 -0.021345137 -0.15809663 0.13456342 0.013831007 0.13556111 -0.171808 -0.21721332 -0.05380205 0.16704796 0.07906747 0.0011702614 0.11601315 0.17415805 -0.21940908 0.37869346 0.18100978 0.07990976 0.18813922 0.2517479 -0.009890626 0.046742205 0.24589975 0.056741014 -0.2026352 -0.19500954 0.18915138 0.016475882 -0.25410053 -0.058219217 0.022682905 0.21324867 0.09251895 0.063767165 -0.046924416 0.11223477 -0.2311622 -0.04182439 0.07657407 0.15310907 0.01651478 -0.0027297242 -0.08937395 -0.11952701 -0.07799064 0.15649664 0.088483445 0.13523783 -0.0067028496 -0.07701013 -0.090243675 0.075402014 -0.074498504 -0.16868797 0.11108871 0.12134983 0.104782976 -0.13717885 -0.24493168 0.0465603 0.020543478 -0.10185861 0.030995203 0.08098583 -0.1525471 0.2673471 0.072133675 0.06473854 0.0776538 -0.053026855 0.1482803 -0.08840791 0.037795488 -0.10783669 0.031581752 -0.07470762 -0.11746435 0.05780643 0.07292186 0.23456492 0.04036152 -0.15992014 0.22283414 -0.1481703 0.18164739 -0.10018649 0.30057502 -0.17160517 -0.030909248 -0.08566011 -0.08748677 0.016555032 0.035669938 -0.046091855 -0.0067950618 0.070563704 -0.113761835 0.14642115 -0.07901211 -0.007178255 -0.090137064 -0.1140214 0.032183703 -0.28870302 0.19751957 -0.0064139175 -0.096259914 -0.04137523 0.038733475 0.098066814 0.039835148 0.06440155 -0.009258172 -0.25866714 -0.0549171 -0.054001078 0.12997515 0.023391204 0.13900352 0.104278386 -0.08902699 -0.061177213 -0.020467067 -0.043058444 -0.17916909 -0.18230543 -0.17506003 -0.11795576
for 0.10296759 0.027327297 -0.0998198 0.11036098 -0.090560146 0.05135725 -0.060672972 -0.10982113 -0.008698438 0.17218445 -0.01164234 -0.034075387 0.026190922 0.06299837 -0.0977793 0.23094434 0.1780523 -0.023850322 0.20179164 0.1617746 -0.07228951 -0.031054499 0.1883365 -0.024238236 -0.076256864 -0.07091299 0.13900581 0.078193635 -0.25195953 -0.009953047 0.03673971 0.13786368 0.05412729 -0.01016446 -0.00034276032 -0.005197762 -0.13879286 -0.17847061 -0.014740823 0.13628724 0.035483662 -0.044438608 -0.13638443 0.003906328 0.09056911 0.16150725 0.030957824 0.07375684 0.09598946 -0.101501934 -0.0016744165 0.038606804 -0.16330387 -0.09733228 0.076881625 0.15354735 0.22029456 -0.14325893 -0.1652515 0.08853103 0.07054834 -0.041970093 0.10618529 0.13771161 -0.1410252 0.14346945 -0.0014153103 0.08157972 0.09847468 -0.095191374 0.01895651 0.026274232 0.20453615 -0.105278015 -0.026164271 -0.1380424 -0.19782828 0.13281865 0.05704462 0.05754669 0.10308018 -0.055913396 0.18940727 -0.11120742 0.16291487 -0.03199385 0.21551067 -0.074545905 0.024546167 -0.116556436 -0.043516867 0.042825952 0.045894764 -0.017821394 -0.09955171 0.07584219 -0.0046928814 0.14037974 -0.04454773 -0.04709229 -0.017494384 -0.08197687 0.04328619 -0.35870636 0.07824681 -0.089352265 -0.06484035 0.026990037 0.13681093 0.12243933 0.12107921 0.16970572 -0.08000965 -0.2092347 -0.19465037 -0.1010819 0.124861546 0.2516887 0.155461 0.12577744 -0.15185022 -0.0044113705 -0.03842932 -0.040258393 -0.10758673 -0.14182639 -0.19752061 0.039836645
said 0.17170094 0.05484627 -0.030451626 0.2092347 -0.099594794 0.11744261 -0.06543645 -0.31036806 0.042319782 0.12613608 0.02005016 -0.16954763 -0.03948009 0.21914682 -0.22808705 0.38870865 0.3457664 0.09522091 0.16082606 0.2537803 -0.03987131 0.17876454 0.28991404 -0.028260589 -0.13922088 -0.17021549 0.16266923 0.11209689 -0.17450985 -0.065377004 0.07055759 0.16452587 0.14490807 0.07535318 -0.029679185 -0.0047565615 -0.11309004 -0.16308859 0.0151466 0.12867567 0.16372979 0.033457864 -0.1422423 -0.052707817 0.09632018 0.084170006 0.054209597 0.035978664 -0.003894219 0.014000012 -0.06926422 0.10382456 -0.06755117 -0.006464657 0.10834569 0.11420322 0.08553933 -0.09848191 -0.21527942 0.07024424 0.21067685 -0.03741323 0.05384641 0.08311812 -0.15773161 0.29217044 -0.021477073 0.045308348 0.053715333 0.09239491 0.102970995 -0.16878252 0.19395134 -0.10765778 0.013240401 -0.11026283 -0.06525383 0.10436788 0.17548728 0.23098095 -0.030595852 -0.076618984 0.15846333 -0.03269842 0.040823836 -0.060850393 0.23693837 -0.18952878 -0.026333913 -0.077459216 -0.25793293 -0.052664716 0.03089474 0.21056668 -0.17599878 0.13825087 -0.077729255 0.14942892 -0.18975823 -0.1045366 0.09148325 -0.0042411555 0.13444132 -0.33631566 0.14039084 -0.086080365 -0.01775271 -0.06920815 0.11883043 -0.04372479 0.17865825 0.2239451 -0.1347201 -0.29318175 -0.22689414 -0.1573403 0.2018757 0.1346161 0.117045015 0.021414021 -0.04458759 -0.051605046 0.039589413 -0.1274523 -0.06084307 -0.256745 -0.13333717 0.014623337
is 0.15548284 0.00033407626 -0.15908827 0.19733448 0.0014484598 0.07949756 -0.08738896 -0.1624728 -0.03157461 0.15470806 0.059666913 -0.020928342 0.027661454 0.16669485 -0.17567585 0.312567 0.15990081 0.07360478 0.18173409 0.20601039 -0.035632588 0.002804767 0.2736257 -0.028722946 -0.12805052 -0.15444572 0.12951857 0.045524452 -0.2502033 -0.0071350336 0.047863014 0.17370833 0.10445253 0.015908325 -0.03009021 0.06458938 -0.1833509 -0.15391518 0.0584764 0.13802929 0.08471433 -0.017594008 -0.08840119 -0.052832518 -0.010957572 0.17594576 0.054478195 0.098337576 0.022792485 -0.08826749 -0.112116545 0.07066851 -0.11600701 -0.099765934 0.06691016 0.10542931 0.084860854 -0.19495514 -0.20403492 0.0782619 0.052137066 -0.07988396 0.026113406 0.15452676 -0.14181863 0.21408278 -0.0043454235 0.047726586 0.10840079 -0.025096942 0.077666126 -0.08201647 0.13905185 -0.19379552 -0.046376802 -0.044148333 -0.09954454 0.051344674 0.07980375 0.21327545 0.043438442 -0.14738686 0.19267124 -0.0848272 0.10083322 -0.098906286 0.2670697 -0.13196573 -0.0051335506 -0.10892039 -0.070051305 0.009740197 0.012774923 0.02449634 -0.095340945 0.07774461 -0.06733546 0.13772598 -0.058021054 -0.012521677 -0.026377635 -0.023135878 0.054977115 -0.28529128 0.17314275 -3.278539e-05 -0.11108857 -0.009281908 0.09962194 0.07753929 0.10664207 0.11574462 -0.067383245 -0.23548025 -0.1349861 -0.1453045 0.15373133 0.09227365 0.122546 0.06409693 -0.06545965 -0.080181316 -0.0012599272 -0.06493384 -0.12760714 -0.16126521 -0.19751531 -0.08104068
was 0.21402584 0.02560356 -0.059351046 0.14378351 -0.061178666 0.055563223 -0.027038345 -0.20316549 0.009105095 0.119382404 0.012094655 -0.08296531 0.05628199 0.16532741 -0.21057846 0.37598553 0.28739578 0.11679754 0.16227572 0.26761118 0.013098891 0.09655068 0.26223347 0.022852704 -0.14390431 -0.18359952 0.20509304 0.07201584 -0.22691001 -0.07083302 0.044851534 0.1895901 0.13640957 0.06633734 -0.07951591 0.063478366 -0.18511522 -0.07027554 0.07441558 0.12511005 0.08977826 0.019673914 -0.14876945 -0.075714506 0.0074491166 0.12365364 0.07956402 0.08374323 0.019043718 -0.023398018 -0.04450803 0.1089153 -0.09613613 -0.07264714 0.15256028 0.15722696 0.08169323 -0.10754858 -0.21336885 0.07021759 0.12908536 -0.09514533 0.033925004 0.08917167 -0.16648273 0.23172301 0.0055938945 0.04977826 0.046460006 0.05020872 0.072612934 -0.13356456 0.19777177 -0.12594295 0.042604264 -0.11703098 -0.08448565 0.110648304 0.1304379 0.22879429 -1.4329238e-05 -0.066561215 0.18225677 -0.055049494 0.14149441 -0.057485364 0.25508422 -0.14437869 -0.03410402 -0.1150459 -0.16607709 -0.01114925 0.057013925 0.07525899 -0.09829869 0.101979576 -0.11546011 0.14929688 -0.088008545 -0.08460179 0.007548678 -0.06306253 0.12742352 -0.32114616 0.17921758 -0.053264074 -0.0539583 -0.05610446 0.08583647 0.019984875 0.10037761 0.16666767 -0.13172534 -0.2406258 -0.15315312 -0.13204363 0.13440616 0.044433814 0.11189851 0.06394644 -0.11127846 -0.029572625 0.0102842515 -0.063913316 -0.08680632 -0.20389876 -0.13431731 0.007902703
he 0.19010743 -0.074982196 -0.09923398 0.21692172 -0.016936934 0.1265587 -0.10228977 -0.35910696 -0.0039132806 0.15527418 0.09806131 -0.07122196 0.025835855 0.16694625 -0.2419009 0.40812153 0.2725952 0.11887625 0.1732417 0.27019784 -0.03655121 0.18156396 0.30281994 0.024039492 -0.123039514 -0.2265114 0.16588566 0.073181234 -0.20655695 -0.08088013 0.03765172 0.16515571 0.2058595 0.06910387 -0.03449363 0.088811725 -0.15033567 -0.132804 0.076454416 0.11901124 0.15401043 0.022683881 -0.12694031 -0.08183678 0.031537097 0.15444599 0.03388274 0.07915645 -0.037099294 -0.054555792 -0.13582148 0.10546933 -0.062164247 -0.06141828 0.06771513 0.085428454 0.060689446 -0.14453253 -0.26483396 0.09272722 0.074258246 -0.0723871 0.025129704 0.093427524 -0.19298717 0.26502243 -0.021304453 0.053934354 0.07511349 0.10106453 0.08140712 -0.1532422 0.17698309 -0.20425601 0.025740365 -0.055912387 -0.105149664 0.089926824 0.11585954 0.2726371 -0.052402485 -0.1265646 0.21216811 -0.08701177 0.02854703 -0.067376934 0.26909944 -0.21757975 -0.04217347 -0.066472314 -0.19897753 -0.018454459 0.048034325 0.17221135 -0.15631917 0.11589852 -0.10877032 0.1481112 -0.14932267 -0.02731065 0.03480728 0.0063524977 0.13551177 -0.273735 0.2417208 -0.06925879 -0.052013647 -0.14311484 0.074402586 0.006799122 0.08212249 0.16944198 -0.14578635 -0.26495102 -0.13139744 -0.20463859 0.1022833 0.0415842 0.117262356 0.060443953 -0.08342057 -0.07584459 0.007881673 -0.10229802 -0.065607406 -0.19004238 -0.079515815 -0.06546732
on 0.1130687 0.014732964 -0.10380723 0.108347125 -0.06945859 0.029077226 -0.05035554 -0.11959532 -0.022374412 0.16986175 -0.018888686 -0.044070095 0.028994016 0.08839007 -0.12697583 0.2657772 0.21352914 -0.02742494 0.19519392 0.18382406 -0.08562582 -0.012557207 0.19754371 -0.008282679 -0.0734191 -0.09496141 0.14986981 0.05979246 -0.25658125 -0.0066306894 0.02962677 0.13842899 0.07362632 -0.011189634 0.012329038 0.013420933 -0.14856961 -0.17808397 -0.007056885 0.13345957 0.03488487 -0.023725381 -0.1370127 -0.006401642 0.1060908 0.17050083 0.017376658 0.057943877 0.096117504 -0.10209847 -0.016251564 0.057675026 -0.15640114 -0.09157517 0.09090831 0.15385778 0.19674367 -0.12875059 -0.1616459 0.07106569 0.076634206 -0.04628346 0.111603364 0.14273614 -0.15103838 0.1319381 -0.004185836 0.07685991 0.09102934 -0.06291074 0.017318008 0.014873715 0.1919311 -0.11153768 -0.026008964 -0.14106388 -0.19583844 0.12402979 0.081816375 0.091935046 0.09815161 -0.04479111 0.15802354 -0.11677594 0.12762949 -0.03993515 0.20676906 -0.07574045 -0.0017144418 -0.12137058 -0.06252866 0.05161126 0.043400567 -0.0022703884 -0.08487297 0.087543756 -0.037179153 0.12869416 -0.033759497 -0.052667577 -0.018021043 -0.08234455 0.058776606 -0.34501424 0.08022995 -0.101402044 -0.052330013 0.019951148 0.12978461 0.11418285 0.09819679 0.16201179 -0.05524696 -0.2049102 -0.19443078 -0.09899194 0.13526098 0.23589961 0.14634821 0.12542157 -0.1470535 -0.003810081 -0.033588372 -0.036005024 -0.102875546 -0.14235462 -0.20249523 0.018458935
with 0.1387153 0.024837544 -0.10843814 0.114013314 -0.087308936 0.04788067 -0.06167362 -0.12980191 0.0091055175 0.15024035 -0.021316 -0.037143897 0.03144529 0.08043993 -0.12313514 0.28179657 0.22864889 -0.02156679 0.19066466 0.1804134 -0.068095185 -0.010442446 0.17463137 -0.005668581 -0.08705968 -0.0905668 0.14656235 0.06274603 -0.23362294 -0.022869535 0.012372542 0.13806228 0.06372118 0.010724514 -0.007232563 0.0060069785 -0.1470632 -0.16639024 -0.018059522 0.14276943 0.021964151 -0.022320092 -0.13441679 -0.020148605 0.1064868 0.15317792 0.03178643 0.050300837 0.07041155 -0.086521685 0.0028572055 0.07517973 -0.14604785 -0.09662104 0.09598005 0.13281162 0.21365829 -0.11459491 -0.16327927 0.07560255 0.08204084 -0.06274177 0.122046925 0.1180047 -0.15211026 0.15656406 0.0038110488 0.07725829 0.087258615 -0.06929269 0.03638662 0.011541123 0.16339031 -0.091731265 0.0038721366 -0.14361395 -0.19845827 0.13863108 0.06553049 0.08982144 0.08675242 -0.067756906 0.17604205 -0.12499028 0.18108392 -0.032657117 0.21087395 -0.10028311 0.016832829 -0.10793583 -0.067923285 0.03246174 0.04558692 0.01136045 -0.08231287 0.081943884 -0.037846588 0.1405398 -0.06316931 -0.0489216 -0.026557118 -0.09074862 0.05898759 -0.3626545 0.06898525 -0.09538548 -0.062496874 0.03098745 0.118674465 0.1260823 0.11095453 0.14773233 -0.07256025 -0.22476219 -0.19258803 -0.07280521 0.1318022 0.23952585 0.15767801 0.11838818 -0.15648167 -0.00034571756 -0.041286435 -0.041867785 -0.11201401 -0.16029875 -0.18465517 0.04080451
it 0.1917994 -0.036659826 -0.012203755 0.054021843 -0.04081944 0.13967194 -0.20003635 -0.41763514 0.00912393 0.15340309 0.15616992 -0.045120895 0.032587882 0.22770806 -0.32788405 0.50193477 0.34850895 0.1455214 0.20246693 0.2958956 0.011251419 0.2164128 0.29103768 0.063915215 -0.26463962 -0.24273221 0.23261613 0.0077693253 -0.14355545 -0.11124233 -0.013032866 0.21800727 0.15096544 0.14738506 -0.11465673 0.115888014 -0.17798354 -0.030032378 0.043925907 0.12831062 0.09274779 0.07741688 -0.08035732 -0.19896781 -0.07812902 0.074716896 0.093659855 0.12086205 -0.11828139 -0.036084577 -0.13592418 0.1377495 -0.005456285 -0.20585439 0.1444498 0.07549901 0.100266784 -0.05216225 -0.31580403 0.053535886 0.051683266 -0.16585533 0.028060267 0.012701126 -0.20007882 0.38076445 0.040928595 0.015672643 0.039962143 0.016528603 0.24394536 -0.2232515 0.028219735 -0.09836511 0.14163657 -0.12184918 -0.06436312 0.0539857 0.12787098 0.2375868 -0.08982268 -0.22335063 0.26399943 -0.17404991 0.13727035 -0.061025377 0.28652194 -0.271061 -0.057340793 -0.06543899 -0.23362572 -0.045823485 0.06682223 0.120597295 -0.042861015 0.17055474 -0.15770763 0.20544682 -0.18795688 -0.03391752 -0.0038321186 -0.07148921 0.05896679 -0.27442703 0.2503029 -0.11322731 -0.050568707 -0.119364485 -0.038674776 0.0055551087 0.054841723 0.14023717 -0.08576791 -0.38874796 -0.102771245 -0.0936421 0.17543913 -0.01894975 0.16335492 0.0074524623 -0.09638156 -0.027054476 0.01878891 -0.10601939 -0.18758751 -0.2749392 -0.1163435 -0.061614323
i 0.30003023 -0.10126242 -0.05855889 0.08015762 0.058474783 0.22366081 -0.289985 -0.5156458 -0.049920246 0.15597343 0.2266551 -0.0011820352 0.10053832 0.29191923 -0.4403678 0.60393614 0.3227148 0.2631625 0.17959212 0.3865477 0.09750399 0.25337037 0.3639395 0.10961015 -0.3850297 -0.3320809 0.27998862 -0.038264442 -0.2026497 -0.14603324 -0.038452946 0.27460626 0.18127151 0.18273635 -0.1923219 0.2519768 -0.2875018 0.04902335 0.16916077 0.12048071 0.09043076 0.10406459 -0.049566336 -0.2892245 -0.2668099 0.083242714 0.11544454 0.21123013 -0.21104902 -0.05815592 -0.22599144 0.16634497 0.04944186 -0.26278248 0.1552712 0.06809516 -0.01704383 -0.07172331 -0.41671428 0.0493133 0.012160262 -0.20248362 -0.06321407 0.0062081506 -0.22619699 0.5072974 0.08404035 0.0074929744 0.058547355 0.034133945 0.33122712 -0.33272332 -0.09663073 -0.16014361 0.17045218 -0.054751717 -0.0008570267 -0.026559945 0.12076329 0.4073569 -0.13094838 -0.30911714 0.32313398 -0.23703122 0.15560289 -0.15872127 0.37390742 -0.40966412 -0.12324455 -0.06688605 -0.21519887 -0.025356246 0.074027896 0.05106429 -0.006473424 0.15013802 -0.26484227 0.2360813 -0.23534822 -0.009641868 -0.1026762 -0.07876436 0.058153953 -0.21279512 0.39612883 -0.04328864 -0.109965555 -0.15350927 -0.098110184 -0.0046712793 -0.025000723 0.09479182 -0.04968065 -0.46378633 0.019677013 -0.12074523 0.22648203 -0.21260029 0.13534375 -0.009780859 -0.057304416 -0.11663568 0.01785721 -0.12285605 -0.29225305 -0.3278215 -0.13366704 -0.23904294
his 0.08751438 -0.014670616 -0.06449715 0.11458436 -0.100893475 0.021349054 -0.020265864 -0.113627814 0.0065078065 0.15769647 -0.024230052 -0.0709145 0.028086696 0.05789481 -0.10888339 0.26760325 0.23693492 -0.02450735 0.16845831 0.19426046 -0.10431752 -0.014267375 0.18212835 -0.025146216 -0.006605305 -0.06275108 0.15817161 0.08165966 -0.24806014 -0.02687469 0.00451865 0.09300092 0.11806284 -0.025692528 0.007883795 0.0011849848 -0.14215152 -0.20833574 -0.015082335 0.13404913 0.03281896 -0.017013388 -0.1386065 0.012037383 0.16606578 0.1619326 0.008810483 0.038069945 0.09516566 -0.0900462 0.019385172 0.04490061 -0.1649535 -0.057774063 0.08911333 0.16027363 0.21805811 -0.121889845 -0.16029324 0.089267835 0.09512722 -0.043852944 0.10984375 0.17557324 -0.20156385 0.09013451 -0.030590044 0.089272276 0.07290932 -0.03499404 -0.039245207 0.04294183 0.23654918 -0.130185 -0.04197648 -0.1730865 -0.21946941 0.18331835 0.0920067 0.061472185 0.11412904 -0.016233133 0.11656143 -0.12943526 0.092961 -0.004411823 0.1873622 -0.060874958 0.0061773877 -0.10781974 -0.08325581 0.07575082 0.055288203 0.04675864 -0.13796861 0.09327229 -0.04637113 0.12921073 -0.017461967 -0.056167055 0.017514763 -0.07012785 0.058382034 -0.36246783 0.08681905 -0.145383 -0.040016674 0.016041463 0.15155844 0.12291278 0.095622845 0.1950682 -0.100377366 -0.19800736 -0.22954193 -0.101786345 0.09231427 0.26802424 0.13814676 0.105556525 -0.19404018 0.02316888 -0.044103052 -0.060013298 -0.068041295 -0.14163452 -0.14866863 0.084008716
-- 0.104332365 -0.063949995 -0.43318132 0.4096348 0.094776146 0.09123941 -0.021237364 0.06103763 -0.1599842 0.21594682 0.009527433 0.05353253 0.05936665 0.09289895 -0.02261026 0.116703376 -0.09876941 -0.068046935 0.18449035 0.1318696 -0.13006341 -0.25170463 0.28461164 -0.12711306 0.05544836 -0.086905375 -0.0026465438 0.112706974 -0.40272796 0.14691636 0.08642546 0.10804921 0.06529398 -0.19456737 0.14006017 0.0075580515 -0.1577934 -0.31269127 0.07579877 0.13596976 0.107571356 -0.11222484 -0.064108804 0.07862405 0.06375309 0.37076375 -0.03361224 0.036096767 0.12430653 -0.28277773 -0.14017394 0.0026568463 -0.27129284 -0.040718824 -0.060561404 0.13924742 0.1051458 -0.41246644 -0.11819189 0.13775665 -0.016893212 0.05189187 0.03630109 0.39324588 -0.14503522 0.060944855 -0.07133388 0.12730637 0.22834955 -0.079553604 -0.13874613 0.14871381 0.22730207 -0.4367133 -0.26399136 0.054452766 -0.22672686 0.047088798 -0.037409827 0.20640308 0.22778139 -0.08334253 0.09299668 -0.11028763 0.01077308 -0.13290213 0.27396917 -0.037790585 -0.028236171 -0.100722715 0.15124796 0.12846087 0.016790839 -0.10367067 -0.18517253 -0.008908268 0.018235868 0.06669079 0.09221395 0.06864187 -0.12711167 0.083641395 -0.025708057 -0.29003182 0.13363485 0.085717276 -0.214158 0.062810406 0.25820693 0.23275135 0.14919572 0.12133183 -0.0339636 -0.08326084 -0.18902795 -0.31245723 0.085201226 0.24308328 0.14222255 0.18297043 -0.03356724 -0.17524892 -0.07395763 -0.010232169 -0.072325796 0.0032076563 -0.32210758 -0.1601335
as 0.17545374 0.009225811 -0.12563089 0.1532203 -0.032748196 0.08191346 -0.092738286 -0.16868438 0.016411534 0.15297939 0.0017022294 -0.024819115 0.06915145 0.08858951 -0.13616255 0.31504908 0.21618134 0.024918703 0.18822144 0.21759999 -0.028096233 -0.0062798164 0.22109038 -0.00078766845 -0.10418068 -0.0952075 0.14364226 0.06198355 -0.2354222 -0.03414773 0.0218151 0.124720454 0.070050396 0.015853312 -0.03096734 0.031250328 -0.16971152 -0.15162435 0.04248257 0.13589369 0.016311824 -0.02025403 -0.12259892 -0.043914124 0.053568467 0.118759006 0.033568665 0.07082353 0.0532483 -0.08437009 -0.015235208 0.095914595 -0.11201034 -0.09448646 0.10858507 0.14723198 0.15093537 -0.13558748 -0.16706255 0.06006005 0.07627398 -0.06018713 0.08708986 0.12449215 -0.13662072 0.1894519 0.022231791 0.060321197 0.0859737 -0.047923956 0.034958333 -0.023813184 0.15073074 -0.10506997 -0.02182294 -0.115634136 -0.1687359 0.09542609 0.07683574 0.16927138 0.0632886 -0.091145895 0.19201344 -0.123092145 0.15820178 -0.037162237 0.23242912 -0.13770747 -0.01891745 -0.10027616 -0.07332124 0.05644876 0.040455922 0.023774797 -0.08365261 0.07384864 -0.060145758 0.14614595 -0.068110615 -0.024906505 -0.035610974 -0.06118548 0.06548906 -0.30510005 0.13872513 -0.032506164 -0.08287666 0.0038753473 0.1175574 0.107641175 0.08190254 0.13429287 -0.06994799 -0.23510377 -0.14075348 -0.08040927 0.1167847 0.17201877 0.13567637 0.10843398 -0.14754283 -0.019182118 -0.042413242 -0.044965915 -0.12398386 -0.1896736 -0.16582415 -0.013076204
at 0.053289138 0.029743284 -0.12665084 0.13495053 -0.059052892 0.008722803 0.005616545 -0.10667223 -0.017083809 0.14473392 -0.028370135 -0.04907756 -0.0011541502 0.07805926 -0.11347688 0.24580444 0.19638887 -0.035859875 0.1804508 0.17769764 -0.08965434 -0.06808692 0.19013956 -0.035775512 -0.043715212 -0.08865648 0.112301804 0.087675534 -0.26728985 0.024557415 0.029257588 0.12843055 0.08247055 -0.048666637 0.021473054 -0.010221249 -0.13297363 -0.21472698 -0.00039267808 0.11767488 0.091629215 -0.03007042 -0.12737182 0.007922849 0.120439574 0.18898216 0.0053666276 0.022441015 0.077914074 -0.108991355 -0.028843587 0.06704362 -0.174803 -0.07075073 0.086414 0.1403722 0.17798483 -0.1835128 -0.13966002 0.10524912 0.0992358 -0.02580046 0.11288035 0.1750833 -0.1542421 0.12605868 -0.048606988 0.068867765 0.10117938 -0.06420903 -0.00715309 0.004907628 0.22737706 -0.16150689 -0.048793692 -0.11426776 -0.19990177 0.11150993 0.07301231 0.08211302 0.113151655 -0.040274583 0.12873845 -0.08112573 0.10796268 -0.02674152 0.19205606 -0.059875626 -0.0145246545 -0.1519125 -0.061837707 0.056410976 0.048304886 0.033498604 -0.12726043 0.09457172 -0.028864088 0.13532948 -0.0350443 -0.07040076 -0.010956873 -0.03254588 0.08946023 -0.37185487 0.07162788 -0.09234634 -0.0655594 0.0038555276 0.17459399 0.10552584 0.123086184 0.1814019 -0.06212698 -0.19056882 -0.22504908 -0.13702333 0.1138022 0.24480969 0.14079008 0.13332522 -0.15754825 -0.011169614 -0.031083683 -0.03575779 -0.07834997 -0.14065467 -0.23382086 0.053106725
from 0.07573299 0.015863022 -0.103375204 0.06630502 -0.111168034 0.0048650554 -0.030174792 -0.06547052 0.007742045 0.17420895 -0.05433865 -0.04058684 0.041150205 0.03277575 -0.059416782 0.2605935 0.23427783 -0.09687546 0.2229616 0.157588 -0.11343728 -0.06978645 0.1498806 -0.019175652 -0.043700285 -0.022427334 0.16265303 0.060498536 -0.26331934 -0.009488288 0.006746102 0.09428362 0.06260146 -0.040514093 0.034364834 -0.0067823147 -0.12261037 -0.22103788 -0.035055734 0.13363598 -0.0108821485 -0.03731121 -0.14203645 0.025418555 0.1787035 0.17258836 0.005538858 0.040034257 0.13467367 -0.11081605 0.06352215 0.050505266 -0.17992021 -0.08487535 0.09180621 0.16521853 0.26991954 -0.1116043 -0.13085939 0.08553526 0.09603751 -0.04703229 0.18120432 0.15199207 -0.14995025 0.06883305 -0.025262257 0.08207249 0.083074465 -0.12168609 -0.033546586 0.07905985 0.21947053 -0.08329042 -0.04098736 -0.18621275 -0.26026946 0.17378385 0.055636276 0.008833107 0.1549294 -0.022833884 0.13359442 -0.1335257 0.16935104 0.007483671 0.1655062 -0.050766904 0.029254206 -0.14683181 -0.033235062 0.088137865 0.048272494 -0.018441977 -0.09312628 0.083300926 -0.014282812 0.13690199 -0.027127411 -0.062175006 -0.01983926 -0.09050033 0.052052252 -0.39859852 0.011282723 -0.1350303 -0.03656354 0.06926569 0.1485436 0.16978857 0.08363624 0.16391388 -0.062322862 -0.16653502 -0.21575944 -0.042197805 0.10029621 0.33916464 0.14740546 0.15063481 -0.21376754 0.044694807 -0.06308623 -0.018468551 -0.09431107 -0.12073182 -0.19538231 0.09678194
are 0.29874772 0.03913029 -0.24064769 0.17679657 -0.03501796 0.12458778 -0.15723895 -0.10111752 -0.019799672 0.17459351 0.0353864 0.00711533 0.10700317 0.114840895 -0.1351208 0.26182508 0.06978929 0.0308679 0.22905026 0.13918795 -0.02414123 -0.060313113 0.17934865 -0.048742794 -0.1240011 -0.15063457 0.12677652 0.050525233 -0.24001452 -0.018068098 0.08742265 0.17078315 0.023371944 0.031277336 -0.003631169 0.037952665 -0.22119161 -0.095633134 0.008733859 0.20224114 -0.002970281 -0.027663177 -0.09038003 -0.077481724 -0.015583828 0.20441611 0.076252654 0.147661 0.11069714 -0.062315047 -0.07909747 0.048704747 -0.17625713 -0.11287033 0.08119746 0.10825518 0.16545409 -0.15897068 -0.18884857 0.06043535 -0.024113242 -0.090263344 0.01924831 0.13751821 -0.14612778 0.17422454 0.066993766 0.08680495 0.13114613 -0.08176185 0.08937532 -0.008071029 0.105441526 -0.12270976 -0.016303485 -0.07804776 -0.15392964 0.09267333 0.014949194 0.1601959 0.08563036 -0.14874394 0.22779664 -0.10193734 0.1990752 -0.1262265 0.30446056 -0.08045401 0.07670689 -0.03594533 -0.038630687 0.008601067 0.02320731 -0.116174854 -0.039016243 0.033490393 0.005142248 0.07835951 -0.019832129 0.020943554 -0.08913875 -0.1283185 -0.049706656 -0.3594389 0.1537715 0.023208538 -0.13298236 0.05519502 0.10109682 0.17539868 0.094354406 0.03142117 -0.021370012 -0.17240721 -0.111122124 -0.05079789 0.11645707 0.15310568 0.17120647 0.11045174 -0.09429859 -0.0625602 -0.06215112 -0.047560558 -0.15308377 -0.14998195 -0.2055219 -0.10050783
by 0.17395084 0.06535882 -0.13202184 0.11678478 -0.09839889 0.021389121 -0.031283703 -0.04470997 0.005649665 0.15102936 -0.055433422 -0.058687344 0.04820464 0.053712197 -0.0868907 0.2120215 0.16150518 -0.043136872 0.20344362 0.13490126 -0.066908814 -0.066551216 0.14441903 -0.036379226 -0.04081555 -0.08632256 0.14259534 0.09632248 -0.26258215 -0.013740712 0.05132957 0.1373441 0.041025445 -0.0070063244 0.017102228 -0.039234545 -0.16355012 -0.15904959 -0.035515837 0.16248375 0.043152947 -0.049730252 -0.14854233 0.011111705 0.110401995 0.16013576 0.050807845 0.07751466 0.13560757 -0.06300184 0.026033977 0.023750478 -0.20320497 -0.056944843 0.10447895 0.16749506 0.2184088 -0.12800643 -0.15479621 0.0831179 0.06844952 -0.040001146 0.09676456 0.13999382 -0.1514249 0.11698637 0.0064682225 0.10208207 0.113969356 -0.08935658 0.005350151 0.040610086 0.23288465 -0.08293736 -0.018216578 -0.15179159 -0.23273699 0.17374733 0.054265924 0.060748216 0.116848044 -0.03350189 0.17167474 -0.097569495 0.18545218 -0.052312795 0.23813888 -0.012670816 0.044983212 -0.113439634 -0.04580533 0.013713373 0.025979176 -0.048322745 -0.08657442 0.05348478 0.026844032 0.097037554 -0.011961525 -0.07704623 -0.009216381 -0.10394903 0.025094243 -0.39746615 0.05906636 -0.07200625 -0.082641944 0.0439866 0.16647711 0.1469276 0.1276498 0.1532536 -0.08539676 -0.16831572 -0.23076467 -0.08095637 0.11145535 0.26861683 0.1793321 0.15784864 -0.15418944 -0.0018501284 -0.028459782 -0.028182948 -0.076247565 -0.144759 -0.21739075 0.04901856
have 0.3905493 0.018550182 -0.16732647 0.07641519 -0.072942026 0.12944561 -0.2238057 -0.13183849 -0.021603355 0.2026388 0.09459852 0.0024784082 0.15236422 0.11444311 -0.22699746 0.36663952 0.17763822 0.07216776 0.25069368 0.23645973 0.05369815 0.053350724 0.19908266 0.08783374 -0.25815237 -0.18483463 0.20101777 0.011078025 -0.29528728 -0.14176673 0.05200072 0.25932893 0.0053802044 0.08195689 -0.08777488 0.1188017 -0.27688164 0.086714916 0.01832276 0.19540313 -0.07479488 -0.010351924 -0.13796979 -0.13875028 -0.1267992 0.1575633 0.06469882 0.21717896 0.06965413 -0.050737996 -0.06502801 0.09080144 -0.15071522 -0.21543057 0.17025512 0.1209252 0.17283314 -0.023665432 -0.27670553 0.0062326076 -0.036008336 -0.13237894 0.057258178 0.027298464 -0.18282859 0.259752 0.16083029 0.103039265 0.075847976 -0.092511825 0.14694424 -0.065057434 -0.02098929 -0.01340727 0.07989031 -0.1465912 -0.096273445 0.11552946 0.06316354 0.17657462 0.08460336 -0.14522542 0.31526712 -0.19758934 0.28877264 -0.109432116 0.30835477 -0.15185073 0.04800004 -0.035130903 -0.06371409 0.011008353 0.011172465 -0.13810654 0.0793976 0.04242101 -0.06867666 0.121719025 -0.063891724 -0.02738757 -0.15784635 -0.2526921 -0.04487656 -0.32205218 0.16217789 0.014226208 -0.059879255 0.06684575 0.008304423 0.12583834 0.063992746 0.030457353 -0.045638293 -0.24723467 0.035006277 0.015442708 0.15489268 0.07887562 0.17629386 0.15729831 -0.19477557 -0.0175324 0.0046644825 -0.028719433 -0.20074481 -0.17267372 -0.17242385 -0.08691163
but 0.3621733 -0.016183823 -0.18553498 0.19449748 0.032226533 0.15637094 -0.18052958 -0.21262783 -0.06405641 0.17500353 0.09708131 -0.027907623 0.14563207 0.19142646 -0.23721245 0.3988407 0.17140977 0.12552223 0.21015361 0.2792397 0.023944017 0.060195833 0.27136132 0.063968524 -0.22030665 -0.2316928 0.1743454 0.0338574 -0.2691894 -0.057085104 0.060940906 0.25404888 0.0739438 0.0655241 -0.06823655 0.10750679 -0.25720465 -0.00435732 0.093789935 0.17162693 0.018833857 -0.0072563225 -0.092002526 -0.13331152 -0.14843322 0.15545852 0.09321109 0.16925927 -0.0026190009 -0.085837305 -0.11048994 0.0768182 -0.09106545 -0.1416439 0.13555667 0.13440093 0.06348568 -0.12705207 -0.2706482 0.04101648 0.028167939 -0.09851516 -0.005269293 0.08672347 -0.14999498 0.28888246 0.0829424 0.06694216 0.09050151 -0.02794091 0.16097073 -0.11868008 0.034015093 -0.12574776 0.029602606 -0.062984966 -0.07626375 0.03679579 0.06285295 0.285829 0.018069925 -0.15718484 0.23768133 -0.12220263 0.1781686 -0.13988253 0.32601848 -0.17443955 -0.020236155 -0.07334352 -0.08264815 -0.022108627 0.0475342 -0.065884955 0.0012572834 0.04943688 -0.11311883 0.1327183 -0.06805144 -0.012511871 -0.102786526 -0.10475897 0.023111073 -0.249053 0.22226961 0.057898477 -0.113801405 -0.044453513 0.028767655 0.08539239 0.044713113 0.07199954 -0.041074317 -0.24104974 -0.029201483 -0.090802066 0.14837955 -0.044543564 0.12770817 0.09415853 -0.04505482 -0.07817099 0.016180972 -0.04375755 -0.16346028 -0.17406438 -0.15667565 -0.15252261
be 0.23976706 0.01218912 -0.069709346 0.029979765 -0.04443567 0.107998736 -0.22065155 -0.25346005 -0.0015736724 0.25162944 0.121586256 -0.02296818 0.056187097 0.19927841 -0.28513443 0.3979469 0.25457266 0.09018836 0.2033575 0.20864697 0.0050771777 0.1322965 0.23619856 0.09048129 -0.26109788 -0.19467129 0.18962511 -0.050819468 -0.196286 -0.07752236 -0.015329558 0.23139879 0.09396221 0.12186137 -0.08659184 0.12984714 -0.22397344 -0.025294103 0.011293637 0.21661511 -0.0494907 0.0334128 -0.107873976 -0.12630601 -0.05635068 0.0704453 0.07069058 0.16499184 -0.040163334 -0.08735036 -0.10971518 0.1186828 -0.07969976 -0.22285011 0.14539716 0.108679846 0.16660266 -0.054338966 -0.23875645 0.013623376 -0.027439263 -0.18072839 0.08115021 0.025843306 -0.16432552 0.2651638 0.10145204 0.03683963 0.056320287 -0.10091648 0.22495541 -0.11761337 -0.04060623 -0.040137384 0.11537438 -0.152451 -0.13756174 0.084251866 0.09523752 0.11676885 0.05119175 -0.17314345 0.29333565 -0.21681313 0.20681787 -0.09750181 0.2882729 -0.18563548 0.053031497 -0.08046168 -0.10428818 -0.007864478 0.096979864 -0.044817846 0.0124932295 0.1478534 -0.097546585 0.19615172 -0.116651684 -0.016363675 -0.021759935 -0.17914487 -0.0315146 -0.30576894 0.15990952 -0.1110457 -0.0599599 -0.023024695 -0.0671362 0.11639046 0.04163532 0.0623559 -0.020717518 -0.31739745 -0.0777058 0.044501938 0.18624833 0.08615914 0.18029879 0.08470371 -0.15758258 -0.016252462 -0.018507944 -0.084559426 -0.21513914 -0.21110193 -0.16178633 -0.057306062
this 0.040958088 -0.08318399 -0.17323726 0.19580317 0.0077667846 0.07781611 -0.13555567 -0.20088513 -0.06973336 0.18128425 0.12774122 -0.013050229 -0.03416489 0.15382493 -0.18138947 0.2930855 0.12622479 0.02587906 0.18763508 0.20360906 -0.121923864 -0.03238261 0.2861488 -0.069361985 -0.079739906 -0.097677305 0.119766325 0.029366363 -0.26054007 0.038449373 0.023306392 0.11166739 0.13789971 -0.023465198 0.053217486 0.045447722 -0.14219205 -0.22947578 0.02741127 0.10196977 0.1254567 -0.0038576208 -0.025225408 -0.038907405 0.03567054 0.24684411 0.03031582 0.08117936 0.005053408 -0.19188753 -0.11894666 0.016333496 -0.120308235 -0.12258522 -0.024803607 0.056493573 0.14087996 -0.22107142 -0.1958936 0.08755459 0.044911798 -0.021325294 0.049297363 0.22400422 -0.17778583 0.18576358 -0.059573565 0.05764844 0.14367872 -0.03205408 0.0482235 0.0009949448 0.14223847 -0.24422513 -0.072649665 -0.032361936 -0.10201681 0.041678376 0.05867377 0.14086646 0.0891668 -0.12258371 0.11487017 -0.1471484 -0.019728918 -0.084173165 0.21713668 -0.15994696 -0.025514409 -0.09715428 -0.051148646 0.06258058 0.012003207 0.038257297 -0.12249803 0.12476764 -0.048313055 0.14768064 -0.078855544 0.004309445 -0.036412142 0.022198072 0.034307547 -0.30247384 0.15826838 -0.07686432 -0.08971525 -0.026864192 0.12651992 0.09512942 0.098996334 0.15687303 -0.022905396 -0.23458247 -0.18184192 -0.21238288 0.1468076 0.1472458 0.1306396 0.059228487 -0.07504314 -0.07432436 0.0020758228 -0.05880302 -0.12448915 -0.093216375 -0.22431244 -0.09587731
were 0.33123165 0.055852897 -0.17997873 0.106156416 -0.085576855 0.07214374 -0.098187365 -0.061707467 0.03254993 0.15262762 -0.00614243 -0.0409715 0.13015868 0.09272175 -0.11686978 0.287579 0.14740643 0.014715585 0.22364847 0.16785002 -0.018021487 -0.03593365 0.14718288 -0.0019236804 -0.11311025 -0.14908591 0.17504156 0.07779202 -0.25647315 -0.067624375 0.08450791 0.16825677 0.03788204 0.04562228 -0.03184569 0.036255263 -0.2366242 -0.05215791 0.008218267 0.20935589 -0.02981715 -0.022776524 -0.1387199 -0.07257309 0.025695713 0.17204389 0.089550585 0.15783386 0.15084833 -0.015869066 -0.0016457797 0.06437598 -0.17369714 -0.09800904 0.17166889 0.15316784 0.19675271 -0.089409105 -0.17396168 0.053560343 0.036718283 -0.10630144 0.053353537 0.082518496 -0.15059516 0.15180923 0.07579961 0.0864164 0.091416344 -0.08301828 0.0536167 -0.0059100515 0.16230659 -0.050187003 0.022630023 -0.14023346 -0.19621006 0.14872263 0.030347122 0.10933419 0.103587784 -0.08944433 0.19633454 -0.09482159 0.26282632 -0.07410897 0.29688856 -0.032495886 0.0831372 -0.073472165 -0.084521376 0.01539555 0.047321808 -0.10446973 -0.009600321 0.032464504 -0.009871184 0.096632466 0.0056168493 -0.040951572 -0.08138608 -0.18453665 0.004948638 -0.39616814 0.09957338 -0.011570899 -0.08090919 0.057581253 0.0992225 0.15616009 0.068352275 0.059343647 -0.04363403 -0.15665065 -0.1371259 -0.013560482 0.09937465 0.17060268 0.1782411 0.13832186 -0.18189964 -0.000792482 -0.045755133 -0.029379304 -0.11956588 -0.18351315 -0.17524992 -0.018441446
has 0.20660608 0.008178506 -0.20699924 0.1750027 -0.05137845 0.024299873 -0.052670516 0.0044077355 -0.035715833 0.19339727 -0.001239892 -0.029222516 0.10278384 0.038864627 -0.08818953 0.22260585 0.10059974 -0.024952434 0.22068165 0.20348787 -0.040749278 -0.07985772 0.20432316 0.011438648 -0.045532506 -0.08055558 0.13601243 0.07761494 -0.35021973 -0.03177123 0.06928204 0.15363275 0.025122834 -0.06500356 0.0028266746 0.040519837 -0.21440208 -0.11223688 0.010590226 0.14681305 0.0048661344 -0.09068952 -0.16190995 0.0109633105 0.039649706 0.23940547 -0.007373922 0.10290703 0.15106863 -0.10756955 -0.017917512 0.030036436 -0.21242104 -0.078602664 0.09583978 0.16689 0.16042794 -0.15055579 -0.18776464 0.06527096 0.027902164 -0.011394738 0.10415899 0.16526584 -0.157803 0.08773286 0.022359896 0.13767496 0.13499856 -0.06365712 -0.046965014 0.058262497 0.18618463 -0.15164952 -0.078101076 -0.11230796 -0.16139834 0.13341375 0.052589707 0.12659317 0.15654896 -0.03638083 0.17656589 -0.1018292 0.15816371 -0.078071006 0.22953583 -0.032981653 0.033364255 -0.11655036 0.012901934 0.088699944 -0.011706389 -0.0785908 -0.065209106 0.017201198 -0.004062772 0.09194651 0.020002382 -0.048473015 -0.08398327 -0.12048486 0.028317226 -0.32559726 0.078072846 0.016987147 -0.060276125 0.08921226 0.18629351 0.14064188 0.115508914 0.13969022 -0.0938997 -0.12963286 -0.09008566 -0.1274739 0.099991456 0.23104772 0.112985484 0.18730338 -0.19190556 -0.026611652 0.008953789 0.0053821155 -0.06776714 -0.075173475 -0.20923781 -0.015144395
we 0.34950393 -0.022338906 -0.091178276 0.09284712 0.005134547 0.19395109 -0.30884168 -0.3899875 -0.0109088905 0.17647323 0.17805758 -0.0034617938 0.11045046 0.22129066 -0.33426538 0.4898175 0.2454203 0.19518435 0.2034304 0.2634195 0.070694126 0.17099859 0.28925574 0.08072406 -0.33770558 -0.25951517 0.22467588 -0.020133648 -0.18439116 -0.10382641 -0.0030446572 0.25259793 0.10561191 0.19194466 -0.12880771 0.16947564 -0.2784571 0.021777567 0.07150903 0.1916208 0.055889703 0.054688063 -0.075156376 -0.24548885 -0.19579606 0.08556998 0.12109074 0.238019 -0.0681216 -0.019137431 -0.16310741 0.10743571 -0.013834498 -0.21774301 0.13842742 0.09551903 0.076464914 -0.08718414 -0.33121404 0.04895966 -0.034780927 -0.18910472 -0.037683792 -0.0033154634 -0.18126313 0.4164676 0.094316 0.009715466 0.083674505 -0.035422944 0.2934657 -0.22488919 -0.055537652 -0.070837855 0.13360302 -0.08585369 -0.04469106 0.033267934 0.079784274 0.30179358 -0.07243217 -0.2876524 0.32739264 -0.19526735 0.20856896 -0.15417975 0.37309587 -0.29296577 0.0070963507 -0.039247863 -0.18100613 -0.055897214 0.033722892 -0.040775333 0.009966657 0.1262179 -0.13536964 0.1751313 -0.17478442 0.0034099068 -0.09858195 -0.15377894 -0.0032549615 -0.28985617 0.3002464 -0.011896348 -0.10351196 -0.087765284 -0.059574183 0.06639271 0.014025466 0.017849078 -0.021647044 -0.33777052 -0.037549723 -0.013311051 0.19789384 -0.06296446 0.16829541 0.037963618 -0.06402514 -0.09834003 0.0040517715 -0.10420971 -0.25540587 -0.28625125 -0.14325571 -0.20380878
not 0.38215163 -0.008738521 -0.11843814 0.13023145 -0.022816233 0.17192 -0.19483757 -0.2660905 -0.033626635 0.15488358 0.12130879 -0.024760695 0.12453597 0.19467843 -0.26919234 0.42190492 0.21293128 0.12995076 0.19687316 0.25900847 0.024854321 0.1297819 0.257969 0.12032163 -0.2636042 -0.26510313 0.21047948 0.035186075 -0.24218056 -0.12208318 0.018600509 0.25875023 0.10539547 0.12201046 -0.0936144 0.12607814 -0.28131533 0.039545488 0.06629465 0.20017229 0.00047806068 0.032213304 -0.108073026 -0.17793386 -0.120914884 0.09649454 0.119453214 0.20009688 -0.014624494 -0.041330516 -0.10690609 0.08362085 -0.05859283 -0.19886173 0.15128791 0.13226081 0.09122344 -0.07433585 -0.302168 0.03773182 -0.0041273953 -0.1258888 0.0023883665 0.02560154 -0.18288942 0.31853825 0.1444591 0.076734915 0.051758733 -0.033564854 0.2105808 -0.15293545 -0.002797984 -0.04176347 0.09691665 -0.11864136 -0.10722504 0.08009262 0.09383714 0.24418983 0.0015214763 -0.16253918 0.2781682 -0.17581275 0.21894722 -0.13867544 0.30676425 -0.19847639 -0.0077196434 -0.030468216 -0.112806275 -0.04082996 0.049825575 -0.05911602 0.038887434 0.06342672 -0.11518894 0.15274625 -0.08930739 -0.043942034 -0.06958968 -0.17117205 0.024576562 -0.30308673 0.2275198 -0.020502167 -0.101753965 -0.056617785 -0.017231693 0.056203753 0.020005291 0.06934661 -0.03625526 -0.30316022 -0.033211872 -0.037172306 0.15575989 -0.04254486 0.16582932 0.08633816 -0.106622055 -0.04468133 0.004598715 -0.0428602 -0.18998837 -0.21608935 -0.12646966 -0.09926461
they 0.45043796 0.039039124 -0.14811529 0.070484705 -0.052539848 0.16511334 -0.2511382 -0.18796934 -0.0067273946 0.19665588 0.058346793 -0.019424047 0.19269548 0.121621035 -0.21509889 0.38615707 0.18055983 0.09419196 0.23277563 0.22385938 0.04056875 0.051453438 0.17159577 0.09598794 -0.23418212 -0.23057804 0.22193277 0.039409813 -0.24014288 -0.12530492 0.048574068 0.2323203 0.009073487 0.13741875 -0.08624596 0.11707534 -0.32083791 0.045730807 0.035663627 0.21330404 -0.0645738 -0.009735635 -0.13141769 -0.16667135 -0.14954737 0.12921979 0.12050265 0.24287134 0.07548975 -0.04014892 -0.010026162 0.044265013 -0.12211543 -0.18937638 0.18566714 0.14003792 0.17190872 -0.043432973 -0.26879326 0.030502606 -0.03575393 -0.14912277 -0.009161746 0.014841887 -0.17593728 0.27545127 0.14912759 0.09346734 0.073820494 -0.10538565 0.1733433 -0.08377147 0.012676289 0.028842324 0.116219155 -0.13549432 -0.13875134 0.108276814 0.039165482 0.19313647 0.03191984 -0.16190998 0.28901672 -0.181069 0.32187173 -0.1414169 0.3403111 -0.13818157 0.063177675 -0.029571533 -0.08966405 -0.027918104 0.048896004 -0.19521919 0.07348792 0.038882434 -0.061987337 0.10062118 -0.05725144 -0.02341234 -0.13272172 -0.24845557 -0.036756434 -0.3495786 0.19000323 0.019642971 -0.11044746 0.018504702 -0.015182732 0.16892906 -0.0021306162 -0.006834952 -0.013569369 -0.19969632 -0.028272526 0.04742056 0.1267755 0.002408926 0.17150004 0.13572344 -0.114526324 -0.021303035 -0.0039006872 -0.027024016 -0.20219125 -0.20798096 -0.12403087 -0.12032918
an 0.11608312 -0.01963147 -0.16676621 0.15738867 -0.030685615 0.03483153 -0.060054217 -0.07841812 -0.027576355 0.17083012 -0.0010609576 -0.022301316 0.06461808 0.070652075 -0.11065151 0.24154589 0.14305888 -0.03484697 0.18460377 0.1716149 -0.075303175 -0.085157834 0.20081511 -0.04654044 -0.020186411 -0.07494091 0.13909271 0.06588274 -0.2663026 -0.00040766795 0.026313337 0.093333416 0.094942994 -0.040070165 0.035631865 0.020508304 -0.15899402 -0.2017723 0.017841266 0.12847239 0.02387479 -0.037717853 -0.09756876 -0.008456811 0.09882676 0.19204818 0.023551978 0.07114911 0.07837957 -0.109463684 -0.0054644183 0.027589446 -0.17441358 -0.08174476 0.06922863 0.13439359 0.17668766 -0.18835612 -0.15462045 0.08873493 0.043933354 -0.042424556 0.07041899 0.19855124 -0.15251237 0.10955005 -0.013742783 0.0733396 0.108073846 -0.07317327 -0.040378127 0.04868118 0.19477165 -0.16916971 -0.07955721 -0.09615945 -0.20403364 0.12657289 0.032260086 0.10809324 0.14972967 -0.06006138 0.13435878 -0.13119699 0.10169792 -0.03267478 0.23175511 -0.06302233 -0.002423602 -0.11524287 -0.012596802 0.0857324 0.022856481 -0.024683287 -0.11131144 0.061113037 -0.036826786 0.106207274 0.013858948 -0.021828867 -0.033673953 -0.031867124 0.018164266 -0.31867495 0.119626515 -0.06524257 -0.09270197 0.017639272 0.1548482 0.1564464 0.07344406 0.14118695 -0.05465858 -0.16662209 -0.17993622 -0.11204251 0.080505885 0.22171573 0.12370254 0.11619401 -0.14746697 -0.016020441 -0.04152117 -0.041544817 -0.10309544 -0.11864622 -0.20309511 0.006572759
: 0.11129327 -0.12515412 -0.26518145 0.28485802 0.10107171 0.13339458 -0.09427666 -0.2122544 -0.15793017 0.16754328 0.10257234 0.06231326 0.045195267 0.19993329 -0.21815038 0.33642825 0.07142246 0.08780434 0.14466833 0.2790655 -0.053947274 -0.04404173 0.3409437 -0.033803962 -0.13227618 -0.18651877 0.09559365 0.03183427 -0.3261254 0.045694917 0.038150806 0.16704658 0.13923584 -0.07712859 0.008666169 0.118831456 -0.18762955 -0.18056086 0.12704225 0.06928644 0.1287126 -0.022456547 -0.015987346 -0.054407284 -0.07059071 0.25838545 0.00025775813 0.06416177 -0.06368793 -0.18965267 -0.20219967 0.07063774 -0.10421363 -0.11795318 -0.006005229 0.054914456 -0.007861908 -0.29661214 -0.22307883 0.09476498 0.022978416 -0.018126627 -0.010026204 0.2217809 -0.14706804 0.22967084 -0.04216085 0.0586557 0.15210322 -0.0028995702 0.022094866 -0.07434293 0.06773622 -0.3484258 -0.11148768 0.07753881 -0.04794078 -0.013457573 0.04305055 0.31694987 0.042373378 -0.15706708 0.12843183 -0.118744284 -0.0032410747 -0.12166593 0.26741216 -0.21522914 -0.1226607 -0.11288585 -0.012330137 0.07403127 -0.0030891944 0.051559556 -0.13806246 0.07736866 -0.13931555 0.11858985 -0.07123012 0.028509324 -0.099854164 0.08022331 0.041210577 -0.20396869 0.2583458 0.049431346 -0.12916237 -0.049984768 0.1451574 0.074070424 0.086515814 0.14365813 -0.041766666 -0.24301867 -0.05295094 -0.26705018 0.11849606 0.013126761 0.07959649 0.07491396 0.0030706206 -0.1606668 -0.012057053 -0.06339044 -0.1576534 -0.10123405 -0.25121552 -0.21100998
-lrb- -0.1629628 -0.17065689 -0.5342461 0.6189823 0.14381634 0.13343835 0.030746749 -0.024128351 -0.24730374 0.27356327 0.026170997 0.06070392 -0.0937919 0.14448948 0.0011192648 0.08007168 -0.13438086 -0.10689075 0.20856334 0.14830728 -0.23461251 -0.31180078 0.45109096 -0.28375548 0.13689153 -0.037555788 -0.088403985 0.15018795 -0.44576827 0.28643644 0.13046755 0.033824883 0.14705032 -0.32761583 0.24581406 -0.012870741 -0.049386263 -0.5900977 0.09232507 0.10775433 0.30682456 -0.10278633 -0.022713069 0.14724839 0.19535415 0.48972547 -0.16510049 -0.047596402 0.081050925 -0.4237969 -0.28491917 0.026238292 -0.32714093 0.03545557 -0.22098483 0.1175238 0.07387382 -0.6203836 -0.08978274 0.21599919 0.06829301 0.1135582 0.089914374 0.57317394 -0.15189093 0.06391198 -0.28128487 0.09811095 0.3082515 -0.013080565 -0.28778166 0.13496642 0.34910813 -0.75825024 -0.45565414 0.15205996 -0.26271984 -0.002858985 -0.02862081 0.29703283 0.25639376 -0.10273331 0.023491755 -0.08467928 -0.25204235 -0.11228104 0.26356882 -0.10408189 -0.102762096 -0.1404769 0.16206065 0.2019941 0.022698052 0.059532017 -0.44661754 0.06993806 0.0055662566 0.12665808 0.058328096 0.11896869 -0.102297954 0.32970873 0.04077174 -0.28046396 0.13567431 0.08749634 -0.25257072 0.035677988 0.41092795 0.23798671 0.24309 0.2697085 -0.0799284 -0.12074278 -0.35217986 -0.5965126 0.13350868 0.37938225 0.123016156 0.1500793 0.019161733 -0.3108395 -0.08754107 -0.09023957 -0.055264927 0.02069516 -0.463409 -0.22773255
-rrb- -0.18943577 -0.11960609 -0.5172891 0.586411 0.17702702 0.058633976 0.030330881 -0.094492264 -0.242101 0.27161407 -0.0059532956 0.05857658 -0.08221498 0.12566234 -0.09458477 0.15551157 -0.09992077 -0.10106021 0.15580846 0.08548645 -0.24642687 -0.26402465 0.40461236 -0.27678114 0.12927261 0.010024378 -0.0884143 0.107165016 -0.42800856 0.26862124 0.04517006 0.056426767 0.16684657 -0.29282802 0.3149776 -0.055712458 0.061497312 -0.6397024 0.09034859 0.018602422 0.25281975 -0.14096175 -0.052870832 0.16851297 0.30654672 0.51047695 -0.12556477 -0.12949757 0.007245487 -0.4308582 -0.25764236 0.0038994267 -0.3555897 0.067757666 -0.25888717 0.041813683 0.10430156 -0.5958344 -0.122843996 0.20271891 0.028672684 0.1952331 0.097576424 0.580584 -0.17637984 0.0651927 -0.3057971 0.09207097 0.3379113 0.0146631235 -0.24389988 0.22241984 0.30946788 -0.75036067 -0.42137808 0.137657 -0.19369556 0.056494046 0.03651265 0.27860442 0.20746677 -0.15768065 0.040663112 -0.085299 -0.25184715 -0.16870145 0.22396113 -0.13886799 -0.11839056 -0.20439583 0.1515127 0.15650754 -0.00018998378 0.14181462 -0.44839433 0.11107094 0.040925894 0.0656573 -0.031267207 0.11802023 -0.067093484 0.34868336 0.011569146 -0.34008494 0.14187528 0.004310949 -0.22013319 0.006010138 0.43122864 0.2520194 0.2923826 0.27314743 -0.06916935 -0.13960303 -0.32219508 -0.56727684 0.10593786 0.44403437 0.12361189 0.14658329 0.07200803 -0.26408735 -0.061014224 -0.09651441 -0.07453102 0.07552548 -0.43665802 -0.17045724
who 0.30968472 0.033971034 -0.18564063 0.18493961 -0.031670235 0.06305066 -0.07170645 -0.076116174 -0.0005979346 0.15037549 -0.0147728985 -0.06648777 0.13280115 0.07178006 -0.119092464 0.27365118 0.1337791 0.020381125 0.19653872 0.18187393 -0.02816303 -0.035347484 0.17135929 -0.012039581 -0.050355386 -0.12759644 0.15692301 0.11709789 -0.26674277 -0.015698181 0.060017623 0.16072875 0.042726967 0.00968362 0.009091389 -0.0018681986 -0.20120692 -0.12289255 0.01006525 0.16351314 0.026062699 -0.05401204 -0.15920213 -0.018181609 0.02641204 0.18147674 0.07460038 0.11164637 0.11682791 -0.062775806 0.014203403 0.025849437 -0.18158622 -0.05620247 0.13622828 0.15353684 0.15539917 -0.15648183 -0.19471881 0.088056505 0.04664772 -0.034271486 0.026628178 0.14250179 -0.14470911 0.16364421 0.04390577 0.10724977 0.12896885 -0.043099727 0.026868261 0.027348638 0.20028853 -0.11902026 -0.021263195 -0.10291096 -0.19914168 0.1364648 0.037871134 0.15490383 0.093262374 -0.07076952 0.17784563 -0.0957862 0.20334099 -0.10042792 0.29875275 -0.041728813 0.048741043 -0.104369536 -0.04047311 -0.0044030123 0.028764164 -0.07643896 -0.055942923 0.0042603114 0.0042566275 0.07401482 0.0030363277 -0.04352684 -0.04312699 -0.100885294 0.013094113 -0.3490484 0.13346267 0.0095184315 -0.1205122 0.016628051 0.13703713 0.14745979 0.087845676 0.11039556 -0.08124298 -0.13027385 -0.16398375 -0.09302112 0.08919418 0.16184717 0.13274834 0.14124615 -0.116103105 -0.011929853 -0.005555077 -0.03609164 -0.054101508 -0.1539163 -0.15324388 -0.019544972
their 0.2725518 0.075114764 -0.12093098 0.036420055 -0.14609861 0.051373217 -0.12053719 -0.05261486 0.036395077 0.19436733 -0.018810144 -0.050710693 0.119325265 0.039686248 -0.09855596 0.25815544 0.20096993 -0.05387553 0.23678976 0.13395824 -0.052714862 -0.047241487 0.09350144 -0.0070201373 -0.0849412 -0.06833299 0.17943978 0.07078525 -0.23518841 -0.07346884 0.036740698 0.12047177 0.0035449436 0.047352213 -0.0042770496 -0.012718007 -0.20478863 -0.10625984 -0.073975176 0.218114 -0.069435835 -0.01749078 -0.1605134 -0.04770396 0.0948167 0.13104008 0.06236847 0.14180627 0.17187035 -0.06343491 0.076670624 0.019703353 -0.19076054 -0.12687859 0.14988329 0.15796694 0.32023004 -0.054750577 -0.16310064 0.059907705 0.008146769 -0.096619256 0.08575875 0.12206322 -0.18019857 0.105894014 0.08750122 0.10786601 0.07646093 -0.1519342 0.028067654 0.08415047 0.16324686 0.030544216 0.042229965 -0.22438149 -0.25172904 0.21119007 0.028935315 -0.009947609 0.152257 -0.04904702 0.20681876 -0.16877106 0.26137823 -0.042572834 0.22910725 -0.021533586 0.09443682 -0.055651154 -0.045305997 0.035430774 0.05180694 -0.1209315 0.00029516604 0.05409323 0.02732405 0.09773955 -0.00040710662 -0.046058405 -0.042114053 -0.21921708 -0.061529603 -0.4345033 0.06090127 -0.112234026 -0.05909788 0.08750211 0.07987804 0.21559106 0.054220073 0.07855345 -0.03361099 -0.15909106 -0.173562 0.06805634 0.1005096 0.3009217 0.20265852 0.15688726 -0.23228851 0.07721734 -0.050774183 -0.021535674 -0.13890055 -0.16992739 -0.15056159 0.071699336
will 0.20244443 0.017620742 -0.080734536 0.08963305 -0.06583213 0.1490315 -0.18647793 -0.24844366 -0.0788534 0.18022278 0.085418016 -0.017086757 0.06472035 0.15438819 -0.20973986 0.31852394 0.19500932 0.04624772 0.21804076 0.22224672 -0.04048626 0.06382344 0.24070187 0.03696969 -0.22131127 -0.20055221 0.15386058 0.020440929 -0.25263453 -0.08798825 0.027968455 0.1926915 0.11597229 0.06358382 -0.051802415 0.0654726 -0.22033648 -0.07522015 0.019184751 0.2051658 0.015165215 0.027905684 -0.07818318 -0.13991635 -0.0394956 0.11852021 0.070335634 0.15328933 -0.009195154 -0.07044462 -0.10013589 0.06991861 -0.07065788 -0.19483726 0.059160188 0.16052492 0.12349598 -0.10124433 -0.23898038 0.0875882 0.06734506 -0.11168123 0.04007505 0.095705524 -0.16377749 0.25717303 0.07443839 0.07273482 0.06052818 -0.0626394 0.1650044 -0.08178375 0.034547355 -0.054758944 0.044226047 -0.12349294 -0.121044666 0.09412993 0.10574101 0.14774267 0.026344158 -0.1647168 0.23620549 -0.16845378 0.17099613 -0.082152255 0.22139035 -0.16009092 -0.020404914 -0.06854699 -0.10347627 0.0123813255 0.016754273 -0.028222391 -0.022956852 0.08733981 -0.09084044 0.16538209 -0.10230723 -0.0314502 -0.029935947 -0.108335994 0.008246512 -0.29951534 0.1584221 -0.07597501 -0.063882954 -0.0140748825 0.047784187 0.074740626 0.048879683 0.07502386 -0.032801338 -0.29400852 -0.10688151 -0.03591814 0.17180426 0.078498766 0.1477187 0.063784264 -0.10532268 -0.073494695 -0.046480127 -0.042632014 -0.20597334 -0.16589192 -0.16630015 -0.06980239
she 0.26642197 -0.008028455 0.029820407 0.0760495 -0.09501979 0.11384241 -0.11454467 -0.3774478 0.050064668 0.12697591 0.0807202 -0.10919582 0.08258325 0.18440971 -0.31357104 0.49708155 0.38063094 0.17601797 0.17298827 0.35126922 0.052546512 0.21960612 0.2655103 0.09084105 -0.21459074 -0.24722795 0.24184972 0.035173498 -0.17688325 -0.13278489 0.004805337 0.22281364 0.19436619 0.1606716 -0.15536053 0.11853683 -0.2060526 -0.0069513144 0.06944786 0.13239074 0.108575456 0.072418846 -0.16888653 -0.1494993 -0.056289095 0.07058074 0.10548996 0.11811559 -0.064496875 -0.01707887 -0.05423345 0.15374616 -0.025053171 -0.14101708 0.2061565 0.12701721 0.07319438 -0.03710839 -0.26958758 0.06772169 0.10445412 -0.13774107 0.017041868 0.01666735 -0.217849 0.33520994 0.024994852 0.021425039 0.024460804 0.10720782 0.17225295 -0.20033793 0.1466955 -0.0755113 0.15535425 -0.1471801 -0.055700503 0.07320967 0.14738646 0.28902423 -0.07797133 -0.12596129 0.24362314 -0.09942345 0.17804497 -0.05682737 0.30977753 -0.2354055 -0.066306174 -0.07497864 -0.26785803 -0.036263175 0.093264945 0.12712914 -0.06828521 0.11923279 -0.17079093 0.18790904 -0.14674938 -0.09568849 0.0320935 -0.10870376 0.15153514 -0.3379044 0.27994132 -0.09364382 -0.047566764 -0.13803355 0.04052708 -0.023270058 0.04496321 0.15924998 -0.1473077 -0.31030005 -0.13148306 -0.10935461 0.115652055 -0.046514373 0.109559655 0.033648636 -0.1499492 -0.0043713427 0.010877164 -0.102330364 -0.10466482 -0.29435652 -0.06484746 -0.010714919
her 0.103876166 -0.02333707 -0.021197831 0.08378277 -0.07454456 0.04674687 -0.0737711 -0.25235277 0.014291663 0.13836975 0.036331993 -0.057532404 0.031767756 0.121596426 -0.22779456 0.37711328 0.31755632 0.0580537 0.1565271 0.26831052 -0.013775872 0.07717064 0.24023497 0.005931719 -0.13019371 -0.10194463 0.1760941 0.00817826 -0.20034273 -0.055881377 -0.02197343 0.1286262 0.17059258 0.06762493 -0.06384698 0.07213297 -0.13068603 -0.13470548 0.055982523 0.10350197 0.063662246 0.050050415 -0.12942007 -0.083667964 0.087356515 0.122695856 0.0503474 0.060162287 -0.015948048 -0.084020026 -0.015741065 0.115515344 -0.0847616 -0.12167151 0.10353994 0.12046618 0.1526392 -0.086154826 -0.18385075 0.072345115 0.11058158 -0.0832536 0.08908458 0.13276051 -0.2138184 0.21462023 -0.027829837 0.020534528 0.052115716 0.021438507 0.0658338 -0.060156405 0.16257852 -0.120720044 0.042204004 -0.14173934 -0.12224119 0.10354156 0.11105794 0.18387921 0.0494096 -0.08905725 0.17558892 -0.12924048 0.11728877 -0.0106895855 0.22616902 -0.20330076 -0.054908864 -0.10134344 -0.14289805 0.052678365 0.05695942 0.09034275 -0.1197646 0.12413859 -0.14237605 0.15377949 -0.09139827 -0.07133957 -0.003998103 -0.0640074 0.08883758 -0.35199994 0.18456396 -0.1275 -0.05032809 -0.044397134 0.09413529 0.06086992 0.06860087 0.17378184 -0.086465195 -0.2791966 -0.1788994 -0.106598504 0.12529653 0.1342687 0.11136025 0.077239655 -0.18144263 0.0032335103 -0.033067543 -0.07477335 -0.1237973 -0.19632688 -0.1333856 0.032292012
about 0.09937164 -0.063397944 -0.22357132 0.22994399 0.043232784 0.09414192 -0.069914654 -0.17248477 -0.11530573 0.15550223 0.057602003 0.0100390585 0.054403786 0.17311399 -0.17273901 0.31649545 0.13912041 0.028461032 0.16925015 0.21179502 -0.068630055 -0.027095748 0.28096738 -0.018693184 -0.120015875 -0.14504747 0.10530008 0.030228576 -0.28589225 0.028646434 0.011978183 0.14707886 0.12577929 -0.051378567 0.035805993 0.07549254 -0.12389481 -0.18121798 0.09262286 0.09146172 0.08815515 -0.0025867892 -0.044939354 -0.036324788 0.031984866 0.22864926 0.014311017 0.042149935 -0.009439254 -0.16946185 -0.12509221 0.062415853 -0.123335786 -0.09660335 0.0025056836 0.09694037 0.094071336 -0.2301877 -0.18977043 0.08597284 0.04840563 -0.026664747 0.053680506 0.21040314 -0.17135946 0.19537748 -0.02744907 0.061767492 0.12602842 -0.035193536 0.012712358 -0.020551803 0.11077968 -0.2556546 -0.07998646 -0.019914133 -0.122384205 0.050328612 0.06972528 0.2192051 0.08308185 -0.117333196 0.14057603 -0.11954342 0.027762981 -0.086874604 0.2228163 -0.17442343 -0.096416384 -0.110338695 -0.027431209 0.0748549 0.018816492 0.023080677 -0.13415281 0.09050156 -0.09614709 0.106757306 -0.053728558 0.0013007602 -0.07404648 0.027404483 0.044196256 -0.2869529 0.160641 -0.035514027 -0.09274082 -0.04024664 0.123752326 0.091356285 0.08508779 0.14877549 -0.021932552 -0.22176191 -0.10326372 -0.18765129 0.11183355 0.11596179 0.10743643 0.11023963 -0.04296214 -0.10102209 -0.04250569 -0.03249523 -0.15154094 -0.09909705 -0.2256931 -0.11045484
cnn -0.12489496 -0.15890886 -0.46986476 0.525986 0.14322434 0.07930267 0.020537917 -0.1325134 -0.23481724 0.2526176 0.076204464 0.06744168 -0.06880706 0.1944921 -0.101060525 0.22931586 -0.047735695 -0.047194622 0.18800054 0.19287269 -0.20379283 -0.23058653 0.40803352 -0.2133333 0.08318995 -0.061415907 -0.046000376 0.10840116 -0.40616557 0.23892708 0.09643923 0.05051317 0.20172071 -0.26706728 0.22302362 0.02220038 -0.044581793 -0.5080081 0.07822164 0.030877836 0.2741338 -0.10023534 -0.015946923 0.11404526 0.17537421 0.4485579 -0.12883508 -0.118352026 -0.026043957 -0.36781043 -0.31613842 0.009490045 -0.23979434 0.004985668 -0.2137026 0.03316585 0.019271653 -0.52536446 -0.12954204 0.15940367 0.05301645 0.13614812 0.07192876 0.494456 -0.1912062 0.06960555 -0.24548665 0.08028063 0.2935666 0.020908846 -0.20016585 0.0991629 0.25321385 -0.66629463 -0.35161912 0.14215603 -0.16030098 -0.005594911 0.011338782 0.28939492 0.18016636 -0.123829395 0.024133628 -0.08790306 -0.2676896 -0.1428516 0.23559068 -0.13291918 -0.13903934 -0.14791189 0.11369105 0.15572056 0.028458461 0.138239 -0.386739 0.12132588 -0.03183588 0.071562305 -0.0036762417 0.08657373 -0.06305419 0.29767463 0.07540508 -0.2886017 0.15161157 0.026651695 -0.17247143 -0.036342606 0.32396933 0.17540517 0.20710422 0.25552687 -0.033587832 -0.14102235 -0.23990427 -0.50455135 0.15196836 0.27539217 0.095447 0.12000214 0.022299714 -0.24121138 -0.020721775 -0.06681633 -0.058916196 0.03612114 -0.39105216 -0.22984302
after 0.08082293 0.025043547 -0.111991815 0.12218755 -0.08232413 0.0035926898 0.011118554 -0.049274307 -0.014857274 0.15887402 -0.056750827 -0.06429351 0.030518435 0.05744883 -0.07359697 0.20423132 0.17577495 -0.051712293 0.18274733 0.16981664 -0.09562022 -0.077435404 0.1780433 -0.04777096 -0.017035069 -0.06476879 0.13448922 0.089283034 -0.26527396 0.0256105 0.040665045 0.10556671 0.072718374 -0.043918625 0.034357797 -0.0141549315 -0.14326732 -0.21991992 -0.006703505 0.14060657 0.05535632 -0.04278468 -0.14088473 0.033339366 0.15392967 0.18462737 0.007392132 0.041006003 0.12819074 -0.104884304 0.02900822 0.044080894 -0.18842076 -0.05503623 0.078240626 0.17318518 0.2030386 -0.16152151 -0.13481303 0.09761305 0.098799594 -0.027030678 0.11858759 0.18348853 -0.15387441 0.08763308 -0.036104996 0.09263648 0.11056533 -0.06497738 -0.04766184 0.053622633 0.25783095 -0.15407683 -0.061026473 -0.14445567 -0.23776178 0.1519089 0.05918677 0.05710473 0.14899419 -0.006456956 0.13109802 -0.083838314 0.12489892 -0.02264767 0.2022534 -0.028387912 0.0049186796 -0.12652348 -0.03241155 0.06746962 0.05707587 -0.004645487 -0.13353087 0.06858818 -0.008083484 0.11119594 0.00039357194 -0.058727425 -0.017018592 -0.06417638 0.06533756 -0.3689031 0.042716134 -0.08606733 -0.07114239 0.03846308 0.1857268 0.14029565 0.11360307 0.19000979 -0.08304543 -0.15864669 -0.23519488 -0.12859017 0.10835719 0.2834501 0.14138947 0.13828078 -0.16969064 0.00020136265 -0.046210773 -0.034489542 -0.07532178 -0.13007201 -0.21550868 0.06108761
had 0.28070977 0.004230787 -0.117014095 0.12334584 -0.07422732 0.099549994 -0.1253808 -0.14871994 -0.010961425 0.15940388 0.046482347 -0.03825099 0.107245535 0.11554943 -0.19091712 0.37508678 0.23265079 0.052335933 0.19791885 0.27524137 0.005566554 0.051626395 0.22571488 0.04561849 -0.14868648 -0.17250742 0.19544207 0.05205928 -0.28123653 -0.097736426 0.05770708 0.18232639 0.08284721 0.041442204 -0.07122649 0.0885294 -0.23525006 -0.02268811 0.03833763 0.15353493 0.0053089443 0.0013061016 -0.14649037 -0.08522664 -0.019941304 0.15472639 0.05671706 0.1297492 0.056935746 -0.050966978 -0.027946644 0.087033 -0.11882772 -0.119925804 0.15713075 0.13271852 0.14208956 -0.0697068 -0.22989216 0.033806153 0.06262888 -0.087234505 0.05751077 0.08044359 -0.17711034 0.209378 0.0643375 0.09561291 0.061855603 -0.017831964 0.07312808 -0.075534254 0.10813633 -0.05903414 0.040489297 -0.12960988 -0.11486176 0.11486705 0.0889054 0.19592193 0.059614025 -0.0838134 0.20788279 -0.123835154 0.18848984 -0.06086082 0.2506907 -0.13756435 -8.0783844e-05 -0.06961928 -0.1083796 0.032597654 0.031134157 -0.02032791 -0.020058941 0.068303466 -0.08907841 0.120682456 -0.06555958 -0.07275615 -0.077992335 -0.1475913 0.06819536 -0.32882762 0.14731605 -0.020818606 -0.036174536 0.016854638 0.07636909 0.075577945 0.0652218 0.11338263 -0.0880744 -0.22030962 -0.06572395 -0.07262154 0.1200469 0.08391995 0.12881775 0.122628145 -0.17428096 -0.01341657 0.00043097645 -0.03584455 -0.12639685 -0.17808704 -0.1420918 -0.033563897
been 0.43539485 -0.047511037 -0.21073332 0.13991468 -0.07213226 0.16790964 -0.18903884 -0.114626326 -0.07087818 0.2539959 0.03257455 -0.0052803173 0.21636596 0.058970805 -0.069116324 0.32098937 0.12354963 0.04185372 0.22009335 0.21107948 -0.043832496 -0.0051840967 0.18613033 0.05434428 -0.11381562 -0.14604357 0.1892087 0.11786362 -0.32314324 -0.042206462 0.043188587 0.16996163 0.009453888 0.05859734 -0.0781269 0.058396284 -0.271304 -0.038419727 0.09574816 0.17946671 -0.106102556 -0.09025121 -0.123435535 -0.03558418 -0.09477956 0.13341428 0.09611477 0.18953697 0.1583955 -0.09858702 0.07722489 -0.024008026 -0.115631975 -0.12293166 0.19706325 0.16457736 0.24946095 -0.13334303 -0.24738133 0.07407123 -0.026082713 -0.070741884 -0.00022711804 0.13331689 -0.14399746 0.16070187 0.14868201 0.11332205 0.048955623 -0.1472441 0.049591295 0.05318017 0.15310809 0.008036406 -0.005255553 -0.11927463 -0.22131644 0.16058168 -0.013319598 0.10642891 0.10787398 -0.027650531 0.20659935 -0.1623986 0.31099957 -0.07750076 0.29793552 -0.084429786 0.06051335 -0.080768794 0.029844845 0.04170712 0.07596809 -0.15344532 0.081514925 -0.008299374 -0.0002869038 0.08624142 0.016761728 0.017130898 -0.07152811 -0.17707755 0.0076338598 -0.3012116 0.16638319 -0.0024242098 -0.13140881 0.017322188 0.039239474 0.19558819 0.0027869951 0.08125188 -0.0142584145 -0.15814929 -0.09121279 0.015955398 0.07831013 0.09326867 0.16510358 0.17144911 -0.11372078 0.05884478 0.0041917493 -0.004889209 -0.117786884 -0.17471236 -0.054592818 -0.06458967
when 0.2839236 0.0070087714 -0.06065532 0.10434004 -0.05279277 0.08003828 -0.07235497 -0.18980853 -0.006676905 0.12997277 0.021893285 -0.06928574 0.097281024 0.14254063 -0.2172262 0.38045242 0.25751865 0.09873723 0.14934595 0.27905902 0.025183536 0.076300316 0.2321073 0.058987692 -0.17593615 -0.18494603 0.22077957 0.054651454 -0.2387645 -0.09285422 0.041097675 0.21466467 0.11831085 0.07844636 -0.09507536 0.074960865 -0.22144759 -0.0151708685 0.069597 0.13138399 0.039750546 0.017331325 -0.14767094 -0.10418824 -0.03470838 0.11464535 0.097977005 0.13274373 0.026794257 -0.039652903 -0.021637978 0.098028846 -0.09284957 -0.118710324 0.17888613 0.17147551 0.11247431 -0.08037147 -0.2302208 0.04865794 0.09873294 -0.10091606 0.028122265 0.058296166 -0.17797226 0.25690424 0.06064803 0.06565317 0.049577426 0.0069698086 0.097379096 -0.115456685 0.119823776 -0.06643041 0.08304656 -0.12052166 -0.09948014 0.09238312 0.09895917 0.22509539 0.02860631 -0.07065255 0.20858656 -0.10479291 0.20865172 -0.06045382 0.27344248 -0.14148685 -0.030035552 -0.1008886 -0.14681819 0.0019597402 0.06432855 -0.012211595 -0.027734078 0.08391137 -0.12052794 0.14981388 -0.071330786 -0.09152895 -0.050068714 -0.14074147 0.107703514 -0.33762082 0.1926757 -0.0493484 -0.06393687 -0.042873465 0.0716024 0.04211094 0.07043124 0.14002988 -0.09419959 -0.24929805 -0.101294674 -0.08171976 0.12182027 0.016672555 0.12184912 0.09934937 -0.13739203 -0.016146483 -0.011448127 -0.04208661 -0.1231025 -0.20671949 -0.13837504 -0.018820379
all 0.2261998 0.016456328 -0.124816924 0.11447669 -0.043275755 0.1021801 -0.13986798 -0.17858726 -0.022310829 0.17146833 0.06360282 -0.032117262 0.06278647 0.14437073 -0.18149962 0.31253698 0.17820704 0.05171724 0.20006569 0.19080569 -0.029514803 0.023717023 0.20591551 -0.003712775 -0.15422247 -0.14171684 0.15439968 0.032885388 -0.21875542 -0.029131303 0.020297486 0.17708823 0.073872246 0.054710694 -0.03679166 0.051729124 -0.19574626 -0.103650965 0.02335933 0.16076581 0.040907852 0.007535875 -0.09710338 -0.07602366 -0.015062161 0.14545818 0.0806892 0.13660909 0.03324113 -0.08851839 -0.0661597 0.04572883 -0.12491462 -0.13640618 0.08463001 0.12615103 0.16506603 -0.13260488 -0.2013717 0.07811976 0.016558489 -0.093289144 0.021057082 0.10770163 -0.16499504 0.21471038 0.049621683 0.06119734 0.09831044 -0.06431621 0.1141872 -0.043035842 0.094467066 -0.09021851 0.019861542 -0.10734446 -0.14406854 0.08139931 0.05958833 0.15444987 0.06371734 -0.1341232 0.21104519 -0.14137125 0.15766643 -0.096488625 0.2692551 -0.13676794 0.016215147 -0.073875174 -0.078529514 0.00033010173 0.03370618 -0.041384462 -0.051082015 0.09066538 -0.055311006 0.12600896 -0.054722834 -0.027125193 -0.041179087 -0.10470125 -0.007985304 -0.33522356 0.16741173 -0.047591954 -0.08577233 -0.013414787 0.075817645 0.10299735 0.06821645 0.0903565 -0.032386098 -0.23360525 -0.12994814 -0.055801522 0.1437104 0.123434104 0.1609486 0.07308558 -0.10417372 -0.028267149 -0.012438373 -0.05551496 -0.14851293 -0.17277646 -0.1728062 -0.053696517
people 0.23288676 0.021061834 -0.16782895 0.1339793 -0.040798098 0.093699425 -0.14003257 -0.13479424 -0.014892143 0.16745077 0.021843161 -0.033990085 0.09890074 0.10627698 -0.1340781 0.28770605 0.17100276 0.00919477 0.22515461 0.16110915 -0.035616197 -0.021508673 0.17789946 -0.028579773 -0.12726781 -0.10680874 0.16253737 0.05957642 -0.23958643 -0.024970802 0.04622386 0.14890128 0.047368255 0.030922206 0.01169176 0.027811335 -0.17234284 -0.123247854 0.0073748645 0.16398801 0.013750208 -0.018085608 -0.10870598 -0.0613189 0.035655677 0.18254441 0.074300826 0.1324412 0.0917987 -0.077881426 -0.028779106 0.035721928 -0.1722925 -0.11044014 0.091193214 0.1321354 0.20443104 -0.13250212 -0.18943816 0.08203826 0.022664657 -0.07760812 0.05735815 0.14643702 -0.15041254 0.18632258 0.025311273 0.06961476 0.102944925 -0.08723195 0.05649908 0.0034793639 0.121963196 -0.09650753 -0.00015110779 -0.101919636 -0.16987887 0.113509245 0.023358181 0.12617156 0.092031665 -0.126297 0.20583926 -0.12782933 0.17805585 -0.07998795 0.26305133 -0.09924527 0.035248347 -0.07587462 -0.050736632 0.007285774 0.018110404 -0.07539881 -0.06667699 0.06214149 -0.032689724 0.1006396 -0.04427971 -0.019429963 -0.07302545 -0.10918197 -0.03421348 -0.36788878 0.12930405 -0.04664224 -0.10124004 0.023881974 0.093138136 0.15206803 0.08556151 0.080839805 -0.03570173 -0.175922 -0.1458105 -0.04754712 0.11805923 0.18600532 0.15789624 0.10493303 -0.12522885 -0.03262191 -0.038167026 -0.05390716 -0.13561378 -0.14357115 -0.17713298 -0.04473876
n't 0.30583948 -0.12337967 -0.05973122 0.094776936 0.033184063 0.25580055 -0.27358764 -0.48970592 -0.092520066 0.15707342 0.22826499 0.029092075 0.08220477 0.28578138 -0.39676192 0.57319504 0.32432067 0.23525292 0.17499295 0.35212708 0.0710883 0.23058082 0.37387368 0.13944565 -0.41087723 -0.33312306 0.27620727 -0.019356007 -0.21478422 -0.12433007 -0.020197252 0.2996061 0.17765155 0.14260368 -0.13435102 0.25848922 -0.2621323 0.05239678 0.16630614 0.14193995 0.0540034 0.1007197 -0.017275222 -0.29214224 -0.21486261 0.108056866 0.09135275 0.19873017 -0.19223039 -0.06406045 -0.22638376 0.17828241 0.035208497 -0.278662 0.14561181 0.076217756 0.050003715 -0.081236355 -0.40374607 0.02937996 0.012816577 -0.18996765 -0.009459766 0.026875582 -0.22704363 0.48434848 0.098086216 0.008998587 0.04589821 -0.0032807032 0.30975848 -0.30599505 -0.12639466 -0.14101985 0.14823166 -0.07410947 -0.03867051 -0.0030420297 0.12525737 0.40038413 -0.07746434 -0.26545694 0.31536347 -0.2562379 0.13444394 -0.12304022 0.34613332 -0.3929491 -0.13556784 -0.032536503 -0.17353308 -0.019243969 0.062607855 0.055477016 0.006938345 0.15446758 -0.26228017 0.25162727 -0.21582796 0.020601716 -0.13446046 -0.10097561 0.06635332 -0.2218035 0.35737482 -0.047104523 -0.09535086 -0.1672412 -0.10808019 -0.016982239 0.0029262083 0.10972219 -0.011294542 -0.47055322 0.029944511 -0.08873089 0.22109094 -0.18275715 0.15453725 -0.00010383563 -0.0612994 -0.10950333 -0.006768054 -0.08483689 -0.30276546 -0.287205 -0.14641576 -0.21814121
you 0.28448257 -0.076192826 -0.10629553 0.08066689 0.037671417 0.20493153 -0.2890072 -0.36630997 -0.09594082 0.20614837 0.17581332 0.030642686 0.12573814 0.22232974 -0.32576153 0.4699186 0.21919207 0.1571743 0.19904101 0.28438985 0.05737875 0.14180823 0.3075336 0.108022735 -0.34312218 -0.26659253 0.22391827 -0.04650883 -0.20996119 -0.08606525 -0.02788418 0.2578336 0.12484211 0.13644911 -0.10179536 0.21407987 -0.26081085 0.018975258 0.10700479 0.17095263 0.01979354 0.055658393 -0.020712154 -0.24111356 -0.19070847 0.12862356 0.08074648 0.22321679 -0.11334313 -0.09586425 -0.1722936 0.13212885 -0.015584193 -0.25886232 0.11938343 0.107693 0.08436451 -0.10243663 -0.33428067 0.047449935 -0.042847205 -0.19339243 3.386894e-05 0.041528728 -0.18531798 0.39858142 0.092508405 0.018682592 0.07550424 -0.063014604 0.2434524 -0.19991522 -0.10260049 -0.1350783 0.102164865 -0.061876178 -0.0667108 0.011121741 0.09245232 0.28690013 -0.022310894 -0.27560982 0.320386 -0.23144457 0.20002723 -0.13581093 0.3382495 -0.30970678 -0.060167678 -0.06654961 -0.11015516 0.0032541906 0.043612257 -0.056535583 0.019981591 0.1344307 -0.18595678 0.20509866 -0.16400357 0.04250848 -0.116883166 -0.119127035 -0.017872628 -0.23761204 0.29961818 -0.044317234 -0.11127143 -0.08193525 -0.067461215 0.09088323 -0.0028537847 0.035617597 -0.0009983964 -0.3587276 0.011848478 -0.033766408 0.18724562 -0.06689006 0.14296341 0.039676446 -0.064032555 -0.109447055 -0.02885958 -0.08437797 -0.29439333 -0.22995119 -0.17330326 -0.20438373
one 0.15999398 -0.004771126 -0.15998586 0.1800141 -0.016541509 0.061505497 -0.05671384 -0.11592084 -0.038920425 0.15187556 0.03205774 -0.055069853 0.077546105 0.111580156 -0.118105814 0.25948572 0.13439669 0.02378457 0.19091278 0.19203831 -0.05071355 -0.027596533 0.23003621 -0.041596822 -0.060492113 -0.11958089 0.13541481 0.086676285 -0.25940344 0.012685104 0.054778747 0.15099427 0.08200168 -0.015683847 0.0070863483 0.023574904 -0.17791912 -0.16108571 0.024379482 0.13484195 0.079321265 -0.03841319 -0.120054565 -0.013692445 0.034928136 0.21019982 0.05821085 0.10380157 0.082391575 -0.102038614 -0.049344636 0.03474633 -0.1704344 -0.06645195 0.08072867 0.1346539 0.14581165 -0.19321409 -0.18498419 0.09513661 0.03513903 -0.042770796 0.020714514 0.18030196 -0.15887551 0.16617785 -0.009522167 0.07641616 0.12718181 -0.030329928 0.006036301 -0.00050186587 0.19937849 -0.17337626 -0.047576707 -0.06272808 -0.15119015 0.091842845 0.046094056 0.16047028 0.09448422 -0.07971063 0.16855438 -0.08104096 0.110517815 -0.06746058 0.25975305 -0.07248797 0.007217214 -0.09405345 -0.059390616 0.022608932 0.015010862 -0.022120224 -0.100471355 0.04921545 -0.03274278 0.10090743 -0.011593443 -0.024509668 -0.038367923 -0.040678926 0.015456012 -0.32436055 0.16293938 -0.033533297 -0.100582905 -0.007545924 0.14760497 0.11349913 0.10793352 0.14132825 -0.08083034 -0.15753739 -0.16236548 -0.14040735 0.10125148 0.158119 0.12865238 0.11228608 -0.10245105 -0.04546657 -0.01984685 -0.053957045 -0.08282231 -0.12885474 -0.19061439 -0.03229511
which 0.18798962 0.015641872 -0.17740586 0.19256109 -0.03518847 0.038145304 -0.04646462 -0.08197208 -0.025244622 0.14955664 -0.0010913098 -0.052654374 0.074226715 0.084884755 -0.10876051 0.2430356 0.1360392 -0.0050908416 0.19847381 0.18051822 -0.058195174 -0.046706103 0.19996856 -0.043245815 -0.033124138 -0.084540926 0.13967946 0.09340811 -0.26427332 0.0113386875 0.052734997 0.13991606 0.061297033 -0.017447976 0.031120503 0.00056498783 -0.15969232 -0.17190206 0.0022547066 0.13419056 0.05483002 -0.05086728 -0.12691133 -0.0019537176 0.07406739 0.19377208 0.04083897 0.08222325 0.10318287 -0.09942061 -0.0026088636 0.026559424 -0.18833701 -0.06332019 0.07460715 0.13255541 0.1756825 -0.18612435 -0.1663306 0.098025896 0.060135562 -0.02655219 0.062230885 0.17473713 -0.15084372 0.13797347 -0.0078073246 0.08684105 0.12668048 -0.04975256 0.002799881 0.028104164 0.21814641 -0.15979055 -0.066666104 -0.10239544 -0.1866668 0.12326058 0.04592215 0.13070653 0.116811596 -0.056093443 0.16759984 -0.09095714 0.13880517 -0.057878125 0.24828812 -0.060664535 0.017392552 -0.120932676 -0.035156306 0.031420086 0.025423102 -0.028970601 -0.102987 0.047408074 -0.018775739 0.0984304 -0.007925513 -0.034890413 -0.022628913 -0.057292264 0.02488812 -0.3427367 0.119580954 -0.036273528 -0.09939216 0.009301497 0.16410612 0.14261438 0.1165059 0.15102518 -0.08222318 -0.1678467 -0.19432014 -0.12626481 0.08809477 0.21641749 0.13208733 0.1247973 -0.11350502 -0.016721234 -0.013053806 -0.04550676 -0.077259384 -0.13625582 -0.19369167 0.0048963865
out 0.17724457 0.011705797 -0.06574967 0.062595956 -0.08004225 0.07542626 -0.11398024 -0.18163551 0.0053092483 0.1485623 0.03844456 -0.038218956 0.06383653 0.11215955 -0.1665568 0.33466956 0.25950176 0.021496484 0.18622416 0.19572979 -0.037751313 0.04659359 0.192441 0.009614363 -0.14474909 -0.116565265 0.1898302 0.043523367 -0.20444845 -0.066911414 0.0066239983 0.15325323 0.09051421 0.06423307 -0.032040704 0.038998947 -0.17044775 -0.11085961 -0.004416501 0.15645881 0.014794631 0.01580321 -0.11424736 -0.08052342 0.055457562 0.120695405 0.068704866 0.10093589 0.051302664 -0.05614444 -0.0018579249 0.0699447 -0.117096044 -0.13263363 0.12798251 0.12137518 0.20876877 -0.083051994 -0.20379399 0.057030153 0.06266201 -0.101151094 0.07380745 0.102454826 -0.17878658 0.20840116 0.041806333 0.060642075 0.05478169 -0.062316865 0.08042394 -0.03797392 0.11447315 -0.058058262 0.042044513 -0.15612917 -0.16904381 0.14763331 0.08325043 0.10362051 0.0675881 -0.09982684 0.19848835 -0.16035984 0.17484817 -0.034002263 0.22610226 -0.13074592 0.0073345373 -0.075982556 -0.09694664 0.0169145 0.048149396 0.0095416885 -0.043151714 0.09810277 -0.070400275 0.13878852 -0.06153755 -0.043992452 -0.033759456 -0.1214815 0.023191346 -0.35060066 0.12119606 -0.11331218 -0.06231374 0.0014859226 0.05576467 0.11583731 0.06779658 0.122657076 -0.046278227 -0.24046177 -0.16146046 -0.034506448 0.13961203 0.17267369 0.16097568 0.08773094 -0.15703453 0.015789805 -0.030514326 -0.05451479 -0.14912824 -0.19002812 -0.15387866 0.015997542
more 0.15217277 0.0026476143 -0.26009452 0.19602911 0.015330781 0.069545284 -0.13508303 -0.055522688 -0.08901976 0.21636063 0.029156845 -0.043591406 0.13825399 0.11231821 -0.06337797 0.16056114 0.0676057 -0.013356669 0.27619994 0.0720719 -0.06442659 -0.117395684 0.18049693 -0.08309371 -0.116638444 -0.034202397 0.1283364 0.03214564 -0.2618916 0.04300188 0.06042028 0.13854691 0.028223887 0.0019420375 0.0962467 0.02687345 -0.13388276 -0.176572 0.043792073 0.15763842 0.025266368 -0.027954638 -0.06948012 -0.02638431 0.0859592 0.2686285 0.03745922 0.17139138 0.12320278 -0.15153319 -0.05329445 -0.01665093 -0.22563988 -0.11038814 -0.032749355 0.1527612 0.26016754 -0.1822218 -0.14084847 0.13225448 -0.042777218 -0.071749814 0.049773734 0.1749262 -0.09463606 0.15264978 0.0066548907 0.0564596 0.15326563 -0.1824913 -0.011216964 0.10543843 0.1584494 -0.15146917 -0.12933598 -0.0464952 -0.1678899 0.0703884 -0.0222427 0.096942686 0.17223321 -0.17117834 0.2565179 -0.1155049 0.14112036 -0.08671638 0.2657993 -0.10777006 0.048696518 -0.1068041 -0.014253825 0.09267196 -0.044361457 -0.15233378 -0.09342683 0.07612799 -0.018209925 0.10096058 -0.03954466 0.074407764 -0.11376084 -0.054788455 -0.12693998 -0.39681688 0.13894722 -0.077334054 -0.1358844 0.052019205 0.11341494 0.19892663 0.13294038 0.052055404 -0.014799996 -0.14730832 -0.10885146 -0.026852725 0.12750238 0.27989548 0.18939757 0.132075 -0.06816568 -0.049780942 -0.07088463 -0.05999579 -0.1953121 -0.09099439 -0.2177098 -0.07189608
says 0.17393278 0.008690619 -0.02805487 0.15171675 -0.035632845 0.12003718 -0.10769157 -0.32788423 0.0061633578 0.11869665 0.06869631 -0.092323065 0.017079022 0.21484365 -0.27573153 0.41918302 0.31676507 0.12562656 0.15445565 0.28633013 0.002720968 0.14888257 0.29904208 0.008199806 -0.19475238 -0.18664381 0.18380249 0.051291246 -0.18741503 -0.05656732 0.021638077 0.19527252 0.15174985 0.08923432 -0.08408807 0.062801525 -0.16566247 -0.10147947 0.06727258 0.118223794 0.12980376 0.047163658 -0.11113231 -0.111415304 -0.005437684 0.1040469 0.085690916 0.07600338 -0.042956904 -0.046522725 -0.09385623 0.111043446 -0.049410664 -0.09035569 0.10941161 0.116291456 0.06748248 -0.10380869 -0.23947935 0.055156436 0.1306128 -0.08422712 0.027941063 0.08869469 -0.18363316 0.31661913 -0.0031633663 0.033927508 0.054732647 0.0725402 0.14025787 -0.17080185 0.112686 -0.12111022 0.05223152 -0.08793487 -0.04289422 0.052085485 0.14090197 0.264379 -0.043403335 -0.11885353 0.19791327 -0.08016873 0.08211751 -0.07815892 0.2604025 -0.2331639 -0.058920454 -0.085259534 -0.19937876 -0.024715343 0.05097709 0.11780579 -0.11008959 0.13292028 -0.139546 0.16097587 -0.1483932 -0.07238452 0.021428091 -0.038119923 0.10686886 -0.3034971 0.20408429 -0.0695797 -0.057684816 -0.09349442 0.07281303 -0.013415432 0.109473705 0.17472446 -0.099006504 -0.30426115 -0.14879563 -0.13586897 0.1690769 0.029412996 0.106049664 0.018781904 -0.053479377 -0.061962076 0.016490255 -0.09992541 -0.11983211 -0.23711778 -0.13998562 -0.043630194
there 0.32327235 -0.008441133 -0.16790804 0.18821174 0.015601989 0.14277905 -0.1860698 -0.2622699 -0.011022954 0.13542241 0.095115 -0.038912777 0.10602447 0.19167839 -0.24101281 0.40199587 0.20417298 0.102948725 0.20834991 0.25507703 0.009187712 0.09067342 0.26624832 0.02621719 -0.17945467 -0.2021177 0.18579921 0.04002675 -0.22143844 -0.07057905 0.044310894 0.21381895 0.07394024 0.08526141 -0.055908486 0.08904119 -0.23126145 -0.04110238 0.03989556 0.14482386 0.08834061 0.013657065 -0.11869045 -0.14113447 -0.08885045 0.15629466 0.11389265 0.15944013 -0.015575201 -0.045029327 -0.108759895 0.081648156 -0.08520928 -0.14075768 0.099355005 0.07953463 0.08825278 -0.13079411 -0.2660056 0.05322111 0.012651107 -0.10570211 -0.026491173 0.06751502 -0.15762646 0.31837395 0.054138042 0.050840713 0.10962218 0.00845604 0.17808278 -0.12264614 0.059393696 -0.117089055 0.041046046 -0.045833476 -0.08515673 0.061607044 0.05212443 0.27326104 -0.020618163 -0.18682227 0.254172 -0.11684562 0.17989607 -0.111925475 0.32346943 -0.18727611 -0.00588277 -0.057333585 -0.14317021 -0.037430923 0.009071325 -0.021426097 -0.039117098 0.058843493 -0.10667293 0.1304479 -0.11969944 -0.022479668 -0.07593221 -0.0875516 0.008976016 -0.30352974 0.24750884 0.0132040605 -0.11967273 -0.046516955 0.04373479 0.082738385 0.07630458 0.079582065 -0.07596735 -0.2633228 -0.06325308 -0.09918373 0.13041899 0.013992994 0.14695825 0.06880591 -0.060363796 -0.05639593 0.0006887007 -0.07719562 -0.1444414 -0.21229632 -0.15295675 -0.138144
or 0.19219168 0.018825596 -0.11079449 0.124816805 -0.06806592 0.099463485 -0.13853802 -0.20087649 -0.0090351505 0.18233572 0.032101028 -0.04337806 0.058498986 0.13566872 -0.17349122 0.31809384 0.21958597 0.02596775 0.20662248 0.17750964 -0.041223217 0.04120984 0.21218237 -0.00425017 -0.14606698 -0.12599583 0.14996505 0.040783763 -0.20123668 -0.045664657 0.018116591 0.15558404 0.07604629 0.06020718 -0.008317613 0.03387488 -0.15547305 -0.1272674 0.00749773 0.15791747 0.022716286 0.003007195 -0.11732015 -0.066411756 0.056480207 0.14032885 0.05301196 0.10583884 0.04420719 -0.07373451 -0.03810199 0.05696237 -0.13046642 -0.115212716 0.08684911 0.11841004 0.18317172 -0.10727702 -0.18835217 0.06784305 0.04970979 -0.0764784 0.07548373 0.10597044 -0.14899938 0.20363821 0.026318755 0.05392398 0.08138112 -0.052574847 0.080913775 -0.03002595 0.110946245 -0.089196965 0.021568656 -0.12239977 -0.16223048 0.118758306 0.07720345 0.13535495 0.06362177 -0.112372786 0.214535 -0.1352312 0.15573443 -0.0680045 0.24551585 -0.1343269 0.0057616625 -0.07613216 -0.08893997 0.003457401 0.041363783 -0.002362749 -0.07141081 0.09371942 -0.048623893 0.12578633 -0.07970425 -0.032050423 -0.024995796 -0.093805864 0.0025690943 -0.34643328 0.130022 -0.07004504 -0.06818794 -0.006721301 0.078406304 0.112896726 0.07814727 0.112417035 -0.049061432 -0.23554662 -0.14896767 -0.058377087 0.13475257 0.17105749 0.14619282 0.09038307 -0.11663137 -0.024025679 -0.018907985 -0.06881936 -0.13405046 -0.16572776 -0.16575688 -0.02328245
into 0.15752517 0.043014914 -0.08611101 0.07837759 -0.09188979 0.03635313 -0.062222496 -0.122397766 0.011952801 0.1370948 -0.011668338 -0.052418876 0.04669823 0.09116689 -0.13581476 0.2709218 0.22196375 -0.012688803 0.20288554 0.15145516 -0.046101466 0.011773859 0.16311057 -0.012989377 -0.11372773 -0.09906658 0.16216938 0.053043094 -0.2124901 -0.039237358 0.017947707 0.13575135 0.063647896 0.035117503 -0.01849003 0.0042297184 -0.14668979 -0.13039622 -0.021941012 0.14967975 0.02547237 -0.0047126985 -0.1343273 -0.03586334 0.08318476 0.13517658 0.048549257 0.07641581 0.08905843 -0.054574963 -0.0011878964 0.06464872 -0.14331742 -0.10358152 0.115233496 0.13914102 0.22367485 -0.10394 -0.17061616 0.0773963 0.08099723 -0.076118484 0.09443329 0.109413676 -0.15611947 0.17298338 0.024431199 0.07482326 0.08500734 -0.09299858 0.063116066 -0.007159226 0.16589625 -0.065748386 0.02032098 -0.15847482 -0.19992158 0.14861178 0.07776281 0.07411899 0.08351748 -0.08693227 0.19188367 -0.12543766 0.18287884 -0.03865161 0.2340785 -0.08201881 0.03008449 -0.09909699 -0.08759856 0.017718796 0.03856021 -0.009135072 -0.07229537 0.092053905 -0.025608791 0.13528334 -0.04510358 -0.053872466 -0.030713387 -0.10258778 0.031018814 -0.37828642 0.08164194 -0.109527126 -0.062963694 0.023737907 0.09037261 0.12761842 0.10908021 0.12606408 -0.0692629 -0.22560738 -0.19576868 -0.04877063 0.13528211 0.22886676 0.16724111 0.12284199 -0.15968512 0.010385604 -0.028197467 -0.06066691 -0.12360438 -0.18180957 -0.18357582 0.041602414
